#ifndef header
#define header
#include <avr/pgmspace.h>

const float HiddenBias_1[5] PROGMEM = {0.00324343, -0.0009604 ,  0.00240976, -0.00259129, -0.00213797};
const float HiddenBias_2[10] PROGMEM = {0.00367406, -0.00226451, -0.00902075, -0.00356287, -0.00336643, -0.0021551 , -0.00386882,  0.00373606, -0.0029062 ,  0.0044191};
const float OutputBias[1] PROGMEM = {-0.00382001};

const float HiddenWeights_1[1225][5] PROGMEM = {{-0.0502859019, -0.00131714472, -6.39871210e-02, -3.95276770e-02, -4.07697894e-02},
       { 0.0522771291, -0.0478269048,  6.47456050e-02,
        -7.80057488e-03,  5.77097610e-02},
       {-1.85968708e-02, -4.93967459e-02, -2.26501469e-02,
        -1.60464828e-04, -6.05098438e-03},
       {-5.24025746e-02, -5.91024235e-02, -4.52732481e-02,
        -4.01200391e-02, -1.21260900e-02},
       {-5.30172959e-02, -5.07956035e-02,  2.18373910e-02,
        -2.01511029e-02, -2.20336486e-02},
       { 7.17017949e-02,  4.67117541e-02, -2.92341337e-02,
         5.11454642e-02, -2.65614185e-02},
       { 3.57527472e-02, -5.55111580e-02, -3.59601788e-02,
        -1.89823266e-02, -1.26336329e-02},
       {-3.56226526e-02, -6.54534996e-02,  5.37362806e-02,
        -6.80970550e-02,  5.74823171e-02},
       { 2.60965806e-03, -1.87742654e-02, -1.02175754e-02,
         6.48218542e-02,  3.66453140e-04},
       {-3.01248133e-02, -2.63629910e-02,  6.88226074e-02,
        -6.29817471e-02, -3.79583314e-02},
       { 4.80266660e-02,  5.84370531e-02, -4.87614311e-02,
        -4.65931632e-02,  4.08710279e-02},
       {-3.88065390e-02,  3.41242254e-02, -4.66268435e-02,
        -4.25929390e-02, -6.03465289e-02},
       { 6.01157621e-02,  4.02569585e-02, -2.47178841e-02,
        -4.76396009e-02, -3.93828452e-02},
       {-6.04416467e-02, -2.46812031e-02, -6.33024201e-02,
         4.69931886e-02,  6.21618517e-02},
       {-2.03949343e-02, -3.45065445e-02, -2.75943149e-02,
         3.33064944e-02, -2.39381939e-02},
       { 4.82041575e-03, -3.41522284e-02, -4.03603911e-02,
        -8.01866502e-03,  1.77111849e-02},
       {-2.41221506e-02, -2.38525588e-02, -3.95606551e-03,
         5.17148413e-02,  5.83425649e-02},
       {-8.99007916e-03, -5.37998639e-02, -6.16724715e-02,
        -4.73605357e-02, -5.64242061e-03},
       {-1.53838787e-02,  5.71490526e-02, -1.39069315e-02,
        -4.90749516e-02,  2.06280462e-02},
       {-4.37220857e-02,  4.41041477e-02,  5.57885095e-02,
         5.70970699e-02, -5.16961627e-02},
       {-5.62535636e-02, -2.83594970e-02, -6.37451112e-02,
         3.58384140e-02, -5.17746918e-02},
       {-3.52780074e-02,  4.64124931e-03, -3.93660665e-02,
         5.86779846e-04, -4.40007225e-02},
       { 5.36143482e-02, -9.76991747e-03,  2.38731913e-02,
        -6.34922311e-02,  1.33695388e-02},
       {-3.00196428e-02,  4.38834205e-02,  1.85698941e-02,
         6.03590570e-02,  2.51168311e-02},
       { 2.87813507e-02, -9.96402698e-04,  6.41717687e-02,
         3.98300365e-02,  1.57933366e-02},
       {-4.39396724e-02,  1.78067032e-02, -2.99464706e-02,
         4.85851653e-02,  1.04269972e-02},
       {-3.37944441e-02,  4.92172725e-02, -5.28461821e-02,
         3.85151319e-02, -4.01444100e-02},
       { 2.26154793e-02, -1.79619398e-02, -2.90293507e-02,
         4.27081659e-02,  5.97813092e-02},
       {-1.74607094e-02, -5.12189120e-02,  3.70771736e-02,
         5.71874045e-02,  2.95302924e-02},
       { 1.35138454e-02, -5.86950034e-02, -2.33601034e-02,
        -1.50558236e-03, -7.12362006e-02},
       { 7.04517812e-02, -5.94109818e-02, -2.57353261e-02,
         4.43946682e-02, -6.19597659e-02},
       {-1.43251996e-02, -3.95865962e-02,  6.11756481e-02,
        -4.06197906e-02,  4.78181764e-02},
       { 1.81254912e-02,  1.11001283e-02,  5.62665127e-02,
        -7.07451114e-03,  6.03669807e-02},
       {-5.89939468e-02,  1.96448565e-02,  5.42703457e-02,
         4.31953603e-03, -6.92032352e-02},
       { 6.45482838e-02, -2.54940689e-02, -1.89156421e-02,
         3.60207893e-02,  3.18336338e-02},
       { 4.59719189e-02,  3.61457579e-02,  6.20694123e-02,
        -1.92723367e-02, -4.62726131e-02},
       { 7.18051195e-02, -2.74021104e-02,  5.94285466e-02,
        -6.87892064e-02, -5.11386432e-02},
       { 5.38824089e-02,  1.66208223e-02, -7.86021352e-03,
        -4.25396785e-02, -2.25399453e-02},
       { 5.39918104e-03, -2.29122303e-02,  5.25511615e-03,
        -2.15388574e-02,  1.32563403e-02},
       { 2.95820739e-02, -4.80901413e-02, -8.25717952e-03,
        -5.35532786e-03, -2.42326260e-02},
       {-4.28750133e-03,  5.70892021e-02, -2.53741611e-02,
        -6.77583665e-02, -1.73228644e-02},
       { 4.62906584e-02, -5.31309806e-02, -1.15529746e-02,
        -5.10125328e-03, -5.58144636e-02},
       { 6.99007064e-02, -2.02821307e-02, -5.31827062e-02,
         4.20566797e-02,  3.95213999e-02},
       { 6.59496188e-02, -4.88841124e-02, -1.19595006e-02,
        -5.87090291e-02, -4.35933061e-02},
       { 3.37419398e-02, -3.46878432e-02, -5.92550002e-02,
        -1.95832807e-03,  4.27126661e-02},
       {-4.54334746e-04,  4.43968363e-02, -2.36188322e-02,
         3.34959850e-02, -5.81055284e-02},
       { 3.27699408e-02,  6.45332932e-02, -5.11577949e-02,
        -6.51781037e-02, -1.81304011e-02},
       { 3.54802981e-02, -2.39827223e-02, -6.90061599e-03,
         1.65572949e-02,  3.55844684e-02},
       {-5.77594154e-02, -3.83770466e-02, -9.08460468e-03,
        -1.56049412e-02, -1.29431644e-02},
       { 3.22759971e-02,  4.60030697e-02,  6.35443255e-02,
         5.90676591e-02, -2.37734504e-02},
       {-8.00883584e-03,  5.08312806e-02, -3.66076045e-02,
         3.01326867e-02, -4.04488407e-02},
       {-2.93890964e-02,  6.80675805e-02, -5.55730909e-02,
        -1.77229289e-02, -3.02713364e-02},
       { 3.16689312e-02, -8.50815512e-03,  1.95955765e-02,
        -2.55073402e-02,  6.26884028e-02},
       {-5.72133176e-02,  3.94508578e-02, -6.26359880e-02,
         5.84847629e-02, -6.39886409e-02},
       { 9.45093296e-03, -6.71541467e-02, -2.34615486e-02,
        -5.82420118e-02,  2.33991798e-02},
       { 8.40846170e-03,  5.86473420e-02,  7.36753643e-02,
        -6.48314953e-02, -2.07269005e-02},
       {-3.19089592e-02,  5.06371446e-02, -1.11848600e-02,
         4.08003516e-02,  5.93752563e-02},
       { 1.08359167e-02, -1.74777173e-02, -4.49551903e-02,
         1.86213162e-02, -2.09217127e-02},
       {-5.36863506e-02,  5.39152399e-02, -4.22786698e-02,
         1.18247159e-02, -6.84150457e-02},
       {-1.29789868e-02, -3.83990929e-02,  5.77328205e-02,
         5.63777313e-02, -6.46465197e-02},
       { 2.31326409e-02, -5.21184802e-02, -1.62943136e-02,
         4.04611975e-02, -4.98361550e-02},
       { 4.08585072e-02,  4.00503650e-02,  3.31302844e-02,
         4.81243767e-02,  2.88116653e-02},
       { 4.47153747e-02,  1.64790507e-02,  5.94097413e-02,
         3.76361348e-02,  5.73984161e-02},
       { 1.92516670e-02, -3.08923703e-02,  2.50347164e-02,
        -2.73347739e-02, -5.01517095e-02},
       {-5.10515384e-02, -7.93545786e-03,  1.52845141e-02,
        -2.27799695e-02,  5.77093624e-02},
       {-1.59697700e-02, -6.70987889e-02, -6.61958829e-02,
        -6.17559906e-03,  4.75472212e-02},
       { 5.26457233e-03, -7.93426589e-04, -3.35650928e-02,
         3.60742621e-02, -4.14433517e-02},
       { 5.56281321e-02, -3.46141160e-02, -4.27926928e-02,
         5.35381548e-02, -5.95168881e-02},
       { 4.58417162e-02,  4.82929163e-02, -5.32578267e-02,
        -5.55738546e-02, -4.37809527e-02},
       { 1.87319890e-02,  1.34159168e-02,  6.88418970e-02,
        -2.58834641e-02,  6.25221431e-02},
       { 1.69836022e-02,  5.77875711e-02,  4.45245169e-02,
         2.07249336e-02, -1.08073791e-02},
       {-4.07998525e-02,  3.55401821e-02, -5.07985838e-02,
        -2.88821626e-02, -3.43063213e-02},
       { 2.80027222e-02, -6.20994978e-02, -7.04866322e-03,
        -1.65150482e-02, -7.65499054e-03},
       { 4.30435175e-03,  1.05227074e-02,  3.33075295e-03,
         6.01552315e-02,  1.69995949e-02},
       { 6.43074214e-02, -4.64738421e-02,  4.04568296e-03,
         4.06632312e-02, -3.55895907e-02},
       { 5.26054651e-02,  1.64921954e-02,  2.43207328e-02,
         5.57317212e-02,  3.39928158e-02},
       {-4.59074341e-02,  5.93722574e-02, -3.57006192e-02,
         3.94474342e-02, -2.81591155e-02},
       { 3.85737196e-02, -4.83636111e-02,  1.17954239e-02,
         1.50472512e-02,  4.74729016e-02},
       { 7.29501992e-02,  1.89823471e-02,  6.83871880e-02,
        -5.44403382e-02,  6.77391887e-02},
       {-2.80919485e-02, -5.74760102e-02,  6.67069405e-02,
         1.17034866e-02, -3.27152796e-02},
       {-3.48610468e-02,  1.35475164e-02,  6.11772537e-02,
        -6.08750544e-02, -3.31520252e-02},
       { 2.55931765e-02,  3.26606818e-02, -2.92705605e-03,
        -1.65111832e-02, -2.39732862e-02},
       {-3.03702503e-02, -6.90080822e-02, -8.02852493e-03,
         3.51725668e-02,  4.01359834e-02},
       { 7.20975101e-02,  3.81455719e-02,  6.25215471e-02,
         2.82021868e-03, -5.78136817e-02},
       {-6.03655279e-02, -1.44149251e-02,  6.45257533e-03,
         1.22560551e-02,  4.69770208e-02},
       {-1.99792590e-02, -2.98014898e-02,  3.22895963e-03,
        -4.51284610e-02, -5.37229478e-02},
       {-2.33521238e-02,  4.91246246e-02, -6.39615720e-03,
         4.79088612e-02,  1.06252520e-03},
       {-5.70460781e-02, -4.92655151e-02,  6.41877428e-02,
        -4.47255783e-02,  4.80545079e-03},
       {-1.65478904e-02, -1.00030424e-02,  7.14965239e-02,
        -1.29685411e-02, -5.14062978e-02},
       {-1.09229172e-02,  1.89860519e-02, -7.50484923e-03,
         5.18020317e-02,  2.35789698e-02},
       { 4.64459695e-02,  8.86485074e-03,  1.16097124e-03,
        -4.45514657e-02,  3.94793227e-02},
       { 4.69206572e-02, -4.10499610e-03, -5.59970848e-02,
         5.07500991e-02, -1.13861840e-02},
       { 2.82144975e-02,  2.98193488e-02, -1.04748709e-02,
         1.73255447e-02,  1.87833868e-02},
       {-3.37527655e-02, -3.95427160e-02,  6.23448566e-02,
        -5.85280024e-02,  1.54997630e-03},
       {-6.87907077e-03, -1.64247695e-02, -4.24034782e-02,
        -7.27681294e-02,  3.54075395e-02},
       {-4.88838553e-02, -8.46771989e-03,  5.41603751e-02,
        -1.00773163e-02, -4.64408360e-02},
       {-1.03246905e-02, -6.85868785e-02, -4.48710918e-02,
        -2.10501477e-02,  2.16090735e-02},
       {-6.57079415e-03, -1.86835285e-02,  4.58803102e-02,
        -2.36659870e-02, -2.26808656e-02},
       {-1.40381008e-02, -4.01653945e-02,  5.27193807e-02,
        -1.17059834e-02,  2.39114799e-02},
       {-5.70543259e-02,  5.58564253e-02,  6.05276525e-02,
         1.92964356e-02, -3.60345021e-02},
       { 5.34446314e-02,  4.56271973e-03, -1.21649522e-02,
         5.96367493e-02,  3.70404348e-02},
       { 2.13853307e-02, -4.82763499e-02, -5.01231290e-02,
         4.00293209e-02, -7.71904085e-03},
       { 3.70237008e-02,  8.89839698e-03,  4.89778779e-02,
        -5.04188761e-02,  5.81553094e-02},
       {-1.70335583e-02, -5.62028103e-02, -4.77559417e-02,
         2.44700586e-05,  4.86985371e-02},
       { 6.18710704e-02, -3.79849300e-02,  9.27628390e-03,
        -6.75827786e-02, -4.76402640e-02},
       { 1.58164669e-02,  3.15885730e-02,  3.84544879e-02,
        -8.94614123e-03, -4.77321893e-02},
       { 8.32265615e-03, -5.95267303e-02,  6.17056862e-02,
        -3.03170383e-02, -2.19273791e-02},
       { 4.81942743e-02, -1.41420858e-02,  2.15055924e-02,
         2.15836670e-02, -3.52555253e-02},
       {-6.30337978e-03, -4.87433933e-02, -2.78311335e-02,
        -4.23471332e-02, -7.94997066e-03},
       {-2.03945097e-02,  5.56215830e-02, -6.32054210e-02,
         3.21298884e-03, -1.21330097e-02},
       { 4.75142039e-02,  5.71042262e-02, -6.15035556e-02,
         3.80600840e-02, -4.40499783e-02},
       { 1.57089345e-02, -5.94060905e-02,  4.19721985e-03,
         6.39797077e-02,  3.62247713e-02},
       { 5.15600629e-02,  3.89074236e-02,  3.02240234e-02,
         1.09286103e-02,  5.48933335e-02},
       {-1.32933389e-02, -2.71401107e-02, -2.23080534e-02,
         1.68428775e-02, -3.97223234e-02},
       { 3.21802832e-02,  4.78045531e-02, -1.96788982e-02,
         2.05000881e-02,  4.26648259e-02},
       { 3.44786607e-02,  2.15074271e-02, -4.97086607e-02,
         1.48207992e-02, -7.63310818e-03},
       { 2.36366987e-02, -5.63859791e-02, -2.87190173e-02,
        -1.31431120e-02,  3.17754485e-02},
       { 7.16744959e-02,  1.63843185e-02, -6.13934062e-02,
         5.04452139e-02, -4.54942062e-02},
       { 3.41710337e-02,  2.72256136e-02, -1.15954159e-02,
         2.36465838e-02,  1.75130032e-02},
       { 6.86555281e-02,  2.66506220e-04,  3.49831618e-02,
        -3.54531482e-02,  6.69585988e-02},
       { 1.83484349e-02, -6.52419776e-02, -6.56823665e-02,
         4.90863733e-02, -5.28210737e-02},
       { 2.32259631e-02,  2.09852830e-02, -3.40181589e-02,
         4.57242317e-02,  5.40054850e-02},
       { 2.34747250e-02,  5.65323606e-02,  2.99436152e-02,
        -5.43635227e-02, -2.38507316e-02},
       { 3.10129505e-02, -4.33476903e-02, -6.47093803e-02,
         3.50815207e-02, -2.75819786e-02},
       {-9.77481063e-03, -1.55988215e-02, -8.09771381e-03,
        -7.01666251e-02,  6.28285706e-02},
       { 9.51244310e-03,  6.09984696e-02,  2.44826227e-02,
        -4.14278768e-02,  3.22789140e-02},
       { 6.80143982e-02, -7.97470007e-03, -4.68653440e-02,
        -4.46345322e-02,  4.29753587e-02},
       {-6.01476692e-02, -1.00154327e-02, -3.25330943e-02,
         6.15037009e-02,  7.88658857e-03},
       {-2.27078665e-02, -4.68142256e-02, -5.76328067e-03,
        -6.94812760e-02, -1.38948951e-02},
       {-5.62295690e-02,  2.46575736e-02, -4.03572172e-02,
         6.50069816e-03,  2.12877020e-02},
       {-6.63334578e-02, -3.77179608e-02, -5.17418906e-02,
         2.48744199e-03, -6.71492070e-02},
       {-3.51877511e-02,  4.96450663e-02, -5.95425069e-02,
         4.03711945e-02, -2.50676945e-02},
       { 5.91705814e-02,  5.58089046e-03, -5.87955639e-02,
        -9.82407946e-03, -3.44354026e-02},
       { 2.59177536e-02,  5.16008819e-03, -5.35844155e-02,
        -2.74476204e-02,  3.19321007e-02},
       { 6.45459145e-02, -5.26078306e-02,  4.63023037e-02,
         1.61875822e-02, -1.06938295e-02},
       {-2.88202595e-02, -4.78499904e-02,  4.10586037e-02,
         4.01770137e-02, -1.10647874e-02},
       { 7.15802759e-02,  4.03284505e-02,  1.51684480e-02,
         1.30326888e-02, -4.45669219e-02},
       { 5.25866337e-02,  5.28385714e-02,  7.02787936e-03,
         3.98433395e-02, -1.79482845e-03},
       { 5.16070891e-03,  4.93285283e-02, -5.47172613e-02,
        -8.37206957e-04,  3.69108394e-02},
       { 4.33548838e-02,  8.05899408e-03,  3.91933024e-02,
        -2.84951180e-03,  4.48037125e-02},
       {-1.94120575e-02, -4.33653332e-02,  1.22814877e-02,
        -6.41156361e-02,  5.08661531e-02},
       {-4.80477661e-02, -5.42179458e-02,  6.42379746e-02,
        -5.14595322e-02, -2.30150186e-02},
       { 5.76370098e-02, -6.78850189e-02, -2.15590447e-02,
        -3.25780995e-02,  4.73922901e-02},
       { 5.12108654e-02, -1.61300562e-02,  1.28450980e-02,
         5.07305637e-02,  5.85046783e-02},
       {-2.30125953e-02,  4.75023054e-02,  4.55949120e-02,
        -7.11737573e-02, -6.62400899e-03},
       { 4.73849773e-02, -5.78273274e-02, -8.42855684e-03,
         4.48907800e-02, -3.00734304e-02},
       { 4.95305136e-02, -3.89754176e-02,  6.23570383e-03,
        -4.42680754e-02,  2.27650143e-02},
       {-6.72903843e-03, -3.49555798e-02, -2.93143764e-02,
        -4.47337925e-02, -3.08624245e-02},
       { 5.56471683e-02,  6.39107898e-02, -6.82569761e-03,
        -3.60630639e-02,  6.67946860e-02},
       { 2.17059683e-02,  9.81121557e-04, -5.79617918e-02,
         4.30417322e-02, -4.27316688e-02},
       {-2.55672634e-02,  5.24915159e-02,  1.96831636e-02,
         3.35630849e-02, -2.68547740e-02},
       {-2.87556630e-02, -1.14073893e-02, -2.40578223e-02,
        -2.53373645e-02, -1.92944531e-03},
       {-6.57113120e-02, -4.29174788e-02, -1.44767212e-02,
         1.14446599e-02, -5.73049821e-02},
       { 2.49836408e-02,  3.10227927e-02, -2.41552703e-02,
        -3.81420851e-02, -5.60241640e-02},
       { 3.81515361e-02,  6.07171319e-02, -4.86823581e-02,
        -1.49949193e-02, -5.34892306e-02},
       {-2.05608085e-02,  4.05616127e-02, -5.06937467e-02,
         2.20788959e-02, -7.14101419e-02},
       { 5.77113368e-02, -4.21138369e-02,  4.59667742e-02,
         3.04350955e-03,  6.02026358e-02},
       { 2.09153388e-02, -6.94935098e-02,  3.99617031e-02,
         9.38861747e-04, -5.74969314e-02},
       {-6.37509599e-02,  1.44205578e-02, -2.89196223e-02,
         5.68813123e-02, -5.59179522e-02},
       {-6.04489818e-02, -5.67474961e-02,  7.21867979e-02,
        -2.37118527e-02, -7.86970835e-03},
       {-1.67904596e-03, -5.59291951e-02, -2.59287022e-02,
        -3.74398520e-03,  5.07684774e-04},
       {-6.50121644e-02, -5.01356423e-02, -2.82224063e-02,
        -4.94372286e-02,  1.85087491e-02},
       {-5.41888140e-02,  6.39082417e-02, -3.36740389e-02,
        -5.37189767e-02, -1.08102534e-03},
       {-5.33885993e-02,  3.27991089e-03,  1.53147932e-02,
         6.33991137e-02, -3.69313993e-02},
       {-1.91209186e-02,  1.27955796e-02, -4.77135703e-02,
         3.77963372e-02,  5.88569455e-02},
       { 4.37873304e-02,  5.99919744e-02, -3.11766863e-02,
        -2.10679881e-03, -3.75110209e-02},
       { 2.43962537e-02,  4.49467078e-02,  1.01289824e-02,
        -3.57464398e-03,  9.63486824e-03},
       {-4.68697734e-02,  3.51174027e-02,  3.03396303e-02,
        -1.38991559e-02, -3.12600620e-02},
       { 3.66495661e-02,  4.90322001e-02, -1.86923593e-02,
        -2.92637646e-02,  4.12634127e-02},
       {-3.26601677e-02,  6.51858374e-03, -6.65354952e-02,
        -4.98366803e-02,  7.35922065e-03},
       { 3.19057778e-02,  3.96716818e-02,  4.88584675e-02,
        -1.44237019e-02,  3.72769497e-02},
       {-1.70840509e-02,  6.36778548e-02, -5.22984266e-02,
        -3.38390805e-02,  5.10998890e-02},
       {-4.81362408e-03, -5.51020317e-02, -6.38295412e-02,
         6.20703809e-02,  3.68977338e-02},
       {-5.17365225e-02,  6.58697933e-02, -1.32209659e-02,
         4.89696749e-02,  5.92839904e-02},
       {-4.53038327e-02, -5.07152304e-02,  3.29383463e-02,
        -9.06532723e-03,  4.02261503e-02},
       {-3.94537821e-02,  1.97676644e-02,  2.44825855e-02,
        -6.60606846e-03,  8.88486765e-03},
       { 5.52546158e-02,  1.09080290e-02, -1.83618534e-02,
         4.38213907e-02, -2.85735093e-02},
       { 4.36595045e-02,  3.32257859e-02, -5.43829836e-02,
        -1.51581075e-02, -4.01363932e-02},
       {-4.19120938e-02, -3.17565389e-02,  5.42574301e-02,
        -2.42392230e-03,  3.74770863e-03},
       { 1.31513523e-02, -2.34971978e-02,  1.69610977e-02,
         3.12734395e-02,  8.79754312e-03},
       { 7.01095676e-03,  5.69931082e-02,  6.98611438e-02,
         2.31857717e-04, -6.56217486e-02},
       { 2.43934393e-02, -1.79762654e-02, -2.07664277e-02,
         2.36625168e-02, -6.91371486e-02},
       { 1.88407954e-02, -6.33881688e-02,  1.29533354e-02,
         5.69352210e-02, -6.41712453e-03},
       { 4.40754257e-02, -2.57187001e-02, -6.36247247e-02,
        -3.36173922e-02,  5.21346880e-03},
       {-3.24739143e-02, -2.43123490e-02, -3.95798013e-02,
         2.10405290e-02, -4.58026864e-02},
       {-1.96101591e-02,  1.07534295e-02, -4.33510356e-03,
         2.37657074e-02, -2.17099464e-03},
       { 2.30999663e-02,  3.55059505e-02,  5.14246561e-02,
        -1.25671373e-04, -1.70213748e-02},
       {-3.33720818e-02, -5.29110096e-02, -5.99611178e-02,
        -6.88263997e-02,  4.51307883e-03},
       {-2.63166218e-03,  6.63498938e-02,  2.80904192e-02,
        -1.42901922e-02,  4.20927405e-02},
       { 2.09400561e-02, -5.54772019e-02, -1.44092748e-02,
         5.04859090e-02,  2.60121971e-02},
       { 6.89235032e-02, -6.01661243e-02,  5.25098294e-02,
         2.27250345e-02, -6.96300492e-02},
       { 6.17331713e-02, -1.39965705e-04,  1.94387825e-03,
         9.26005654e-03, -4.80145551e-02},
       {-2.36927904e-02, -2.79374439e-02, -8.28785729e-03,
         6.64154664e-02, -4.54468690e-02},
       { 6.17619790e-02,  6.10023029e-02, -6.08199500e-02,
        -2.44067907e-02,  6.54669404e-02},
       {-3.85847650e-02,  6.26459941e-02,  4.04966287e-02,
         6.42909557e-02,  5.42976558e-02},
       { 2.28076503e-02, -5.86605351e-03,  3.69187742e-02,
        -8.69043451e-03, -2.55060047e-02},
       {-1.81533210e-02, -2.68235914e-02, -3.16458382e-02,
         4.99883741e-02, -4.00245422e-03},
       {-4.20327932e-02, -7.72568723e-03,  6.44924566e-02,
        -1.68788545e-02,  2.11364888e-02},
       { 4.86505628e-02, -4.77057360e-02, -6.01706728e-02,
        -4.60838452e-02, -3.83448228e-02},
       { 3.74497510e-02, -1.33016063e-02,  4.49662209e-02,
        -1.10187829e-02, -5.21426275e-02},
{ 2.86642872e-02, -3.13127264e-02, -4.64943945e-02,
         3.06759905e-02,  4.14722189e-02},
       {-5.32775782e-02, -4.97599691e-02, -1.95376277e-02,
        -1.94291156e-02,  5.22632673e-02},
       { 4.69955355e-02,  1.63703747e-02, -2.58845668e-02,
         3.76812927e-02, -6.84015453e-02},
       { 2.39708126e-02,  6.65370524e-02, -1.78033672e-02,
         3.23263556e-02, -8.84160399e-03},
       { 6.37823809e-03, -2.50290185e-02, -6.45481199e-02,
         9.95804463e-03,  5.00364862e-02},
       {-7.37118116e-03,  9.35274642e-03, -4.52469885e-02,
         3.12166512e-02, -2.37694383e-02},
       {-2.00244151e-02,  5.87791875e-02,  2.83732545e-02,
        -6.67481199e-02,  8.07937235e-03},
       { 7.25525916e-02,  4.66526337e-02,  5.72077222e-02,
         4.32394370e-02,  1.41493371e-02},
       { 4.47709784e-02,  2.66750399e-02, -5.49651645e-02,
         1.67934392e-02, -4.17638011e-02},
       { 4.02835496e-02,  2.48074494e-02, -2.70768572e-02,
         2.59545296e-02,  3.20169330e-02},
       { 5.43248616e-02, -5.92898764e-02,  3.27132605e-02,
        -4.81953435e-02,  7.62630301e-03},
       {-3.59618710e-03, -6.07642420e-02,  5.29602803e-02,
         5.35866730e-02,  1.59246509e-03},
       {-5.72522208e-02, -4.14052010e-02,  7.81664625e-03,
         6.57763183e-02,  2.51070913e-02},
       {-1.61146615e-02, -9.24972061e-04, -2.30823550e-02,
         4.04060856e-02,  1.03371572e-02},
       {-1.79602243e-02,  4.51605059e-02, -7.01686647e-03,
         1.06527172e-02, -4.02293503e-02},
       {-8.32414720e-03, -4.56553660e-02, -5.52543998e-02,
         6.46497533e-02,  4.34527919e-02},
       { 3.98823842e-02, -4.43656091e-03,  6.22640327e-02,
        -4.12764251e-02,  6.02081083e-02},
       {-5.23963682e-02, -2.08455995e-02,  2.77876332e-02,
        -5.50701022e-02, -2.36787964e-02},
       {-5.14827855e-02, -4.56958562e-02, -3.29293758e-02,
         4.59548272e-02, -1.89498570e-02},
       { 2.33216155e-02, -1.36498250e-02, -1.43857785e-02,
         1.78629905e-02,  4.37634774e-02},
       {-4.79768850e-02, -6.48360252e-02, -5.91939986e-02,
        -2.29004864e-02, -2.63624806e-02},
       { 4.73214388e-02,  1.51670482e-02, -3.36925499e-02,
         1.83057822e-02,  9.44969710e-03},
       { 3.05223279e-03,  4.34789918e-02,  2.26848628e-02,
        -6.41070232e-02,  3.34109254e-02},
       {-6.58899695e-02, -4.23597395e-02,  5.50383106e-02,
         7.10714469e-03, -6.36894628e-02},
       { 3.16435248e-02, -6.98693246e-02, -2.17976421e-02,
         2.47692913e-02, -2.80306656e-02},
       {-3.61942537e-02, -5.65111004e-02, -4.46993262e-02,
         2.65074316e-02, -2.73859948e-02},
       { 2.56203804e-02, -2.19030213e-03,  4.82323393e-02,
         4.82621528e-02, -2.54552048e-02},
       {-2.86469422e-02,  3.44765629e-03,  1.91517528e-02,
         3.03978520e-03,  6.09155186e-02},
       {-4.18392867e-02,  2.16861367e-02, -4.17917967e-02,
        -3.02127730e-02, -6.27613664e-02},
       { 1.54131986e-02,  3.33103463e-02,  7.62225538e-02,
         4.66367751e-02, -1.42172370e-02},
       {-5.17459773e-02,  2.67155911e-03,  7.24803507e-02,
        -6.77070767e-02,  3.81663144e-02},
       {-5.40569648e-02, -6.33919016e-02, -4.41468284e-02,
        -4.31796424e-02,  8.24039429e-03},
       {-2.59720366e-02, -4.13498916e-02,  1.99443777e-03,
         2.87053082e-02,  3.34487297e-03},
       {-6.45110607e-02,  5.12329862e-02,  1.77182201e-02,
         6.28744438e-02, -8.72925483e-03},
       { 3.32116261e-02,  1.34227956e-02,  4.81062196e-02,
         1.23671014e-02,  1.01949181e-02},
       {-3.38483714e-02,  6.76905438e-02,  5.56641407e-02,
        -3.30905467e-02,  6.29818290e-02},
       { 4.19168733e-02, -6.06497042e-02, -1.22426590e-02,
         4.43208367e-02,  5.27897328e-02},
       {-2.40555685e-02,  2.99785361e-02, -3.96116637e-02,
         5.09009846e-02, -2.19711028e-02},
       { 1.42170778e-02, -5.71984891e-03,  1.47923287e-02,
         1.94388209e-03,  7.70216994e-03},
       { 6.21666647e-02, -6.92436518e-03,  1.61671489e-02,
        -3.76169719e-02,  7.70816579e-03},
       { 5.65843731e-02, -1.30594429e-02,  5.00345379e-02,
        -1.51907979e-02, -2.89803445e-02},
       {-2.36609206e-02,  6.28282875e-03, -1.01030115e-02,
        -6.53206185e-02,  4.69715409e-02},
       {-4.35094209e-03,  5.15965708e-02, -5.69732264e-02,
        -5.24712913e-02,  1.90678947e-02},
       { 3.54097486e-02, -5.10552786e-02,  4.53628190e-02,
        -5.70925474e-02, -7.23268604e-03},
       { 1.73897184e-02,  3.65745835e-02,  5.41519001e-02,
         3.28560658e-02,  4.83858362e-02},
       { 7.10313618e-02, -4.23249938e-02,  1.69907361e-02,
         2.59445850e-02,  5.48211746e-02},
       { 5.75771332e-02,  5.30102961e-02,  5.53281419e-02,
        -5.65362303e-03,  3.06429192e-02},
       { 1.88851543e-02,  7.86928087e-03,  5.71989715e-02,
        -5.95107786e-02,  4.22832258e-02},
       { 4.28831317e-02, -1.64001156e-02, -4.95707691e-02,
         6.56222701e-02,  5.01062833e-02},
       {-3.82138342e-02,  4.77517992e-02, -3.69425230e-02,
         5.40987402e-02,  3.06835268e-02},
       { 2.84865629e-02, -2.02895813e-02, -4.36016917e-02,
        -6.79078549e-02, -1.00231450e-03},
       { 5.82328811e-02, -5.34511246e-02, -1.88857522e-02,
         1.61860846e-02,  5.32089844e-02},
       { 3.59220952e-02, -3.27218473e-02, -2.31210086e-02,
         1.11997686e-02, -3.92145803e-03},
       { 5.16619049e-02, -3.94351482e-02, -1.03281708e-02,
        -2.98146605e-02,  3.65478881e-02},
       {-1.63444541e-02,  1.85109153e-02,  3.62034105e-02,
         3.33544537e-02,  6.61279075e-03},
       {-4.35535470e-03,  4.96661738e-02,  5.37213720e-02,
        -3.59832384e-02, -3.34564187e-02},
       {-1.15748560e-02,  3.34199965e-02, -3.07803005e-02,
         4.61126715e-02,  2.61921901e-02},
       {-8.68950505e-03,  3.29310000e-02, -8.34851991e-03,
         3.42702158e-02, -2.78243963e-02},
       {-2.70640757e-02,  2.86831026e-04, -9.60372202e-03,
         9.63910669e-03, -7.11263865e-02},
       { 1.15819983e-02,  5.52020259e-02, -2.17039534e-03,
        -4.49128971e-02, -1.79900229e-02},
       {-3.39710377e-02,  5.85718006e-02,  6.19702488e-02,
        -3.26333828e-02,  3.73990349e-02},
       { 5.97330853e-02, -8.79136752e-03,  1.84477400e-02,
         5.68708628e-02, -6.48673400e-02},
       { 6.70108870e-02, -2.49376353e-02,  4.39825375e-03,
        -6.67421520e-02, -2.52627414e-02},
       {-3.97526100e-02,  4.01205793e-02,  1.52978464e-03,
        -3.83316800e-02, -6.66616186e-02},
       { 6.61553293e-02, -1.70839112e-02, -1.82597283e-02,
         5.18738199e-03, -1.38203399e-02},
       {-4.82692979e-02, -2.31265500e-02,  6.28122911e-02,
        -1.29985297e-02, -2.24092994e-02},
       { 5.42726070e-02, -6.05576672e-02, -4.94146720e-02,
        -2.78152768e-02, -2.58334097e-03},
       { 6.80568665e-02,  6.57429919e-03,  4.14029770e-02,
        -3.37203257e-02,  5.80325872e-02},
       {-5.01654111e-02, -4.71433438e-02, -6.15261421e-02,
        -2.07998399e-02, -2.31022723e-02},
       {-5.41647337e-02,  6.82339594e-02, -2.70709042e-02,
        -6.96156546e-02, -6.74709082e-02},
       {-2.64864136e-02, -5.05555831e-02, -1.58323087e-02,
         1.88559666e-02,  6.20708503e-02},
       {-1.52344443e-02,  4.05230932e-02,  1.01389224e-02,
        -2.82493047e-02,  5.16275950e-02},
       {-1.42422905e-02,  4.46893424e-02, -3.59244384e-02,
         5.00867032e-02,  7.85732828e-03},
       {-1.51574090e-02,  6.31183619e-03, -7.79632200e-03,
         3.84566858e-02, -7.54145440e-03},
       {-2.63088848e-02, -6.78622499e-02, -8.23640823e-03,
         2.20182855e-02, -4.23948187e-03},
       { 4.60981904e-03, -5.27452789e-02, -7.16265757e-04,
        -1.50599517e-02,  6.54467493e-02},
       {-6.67053554e-03, -6.21321090e-02, -4.25635166e-02,
        -8.68494809e-03, -4.93436716e-02},
       {-6.75521092e-03,  6.72463328e-02,  4.22606431e-02,
        -3.93819846e-02, -5.09505458e-02},
       { 1.55006521e-04,  5.37126288e-02,  1.80812925e-02,
         1.84756815e-02, -5.66294752e-02},
       { 2.58699316e-03, -1.18214032e-02, -5.78466477e-03,
        -3.38259079e-02,  2.72532906e-02},
       { 5.75859062e-02,  3.98204289e-02, -1.08411452e-02,
        -5.28669395e-02,  2.57006381e-02},
       {-9.67454072e-03, -5.50541654e-02,  1.17697753e-02,
         5.87443225e-02,  5.13205677e-02},
       { 6.96410537e-02, -1.54604148e-02,  4.91103008e-02,
        -4.38463688e-03,  6.32722750e-02},
       { 4.08422993e-03,  4.80492041e-02,  2.65132990e-02,
        -7.03356713e-02,  3.86073180e-02},
       { 7.14618638e-02, -4.94641662e-02, -4.53697667e-02,
         5.94389848e-02, -4.62018698e-02},
       { 6.11494072e-02,  2.76978463e-02, -5.25024347e-03,
         3.75450142e-02, -3.87346633e-02},
       {-4.07165475e-02,  6.65417165e-02,  1.03919525e-02,
        -6.86838627e-02,  3.41956411e-03},
       {-2.96368431e-02,  1.05632041e-02,  7.09190145e-02,
        -2.42191274e-02, -2.31206454e-02},
       {-3.22776586e-02, -1.44881224e-02, -3.40124546e-03,
         4.11443226e-02, -5.69348931e-02},
       { 6.25013113e-02,  3.83715853e-02,  6.03587218e-02,
        -3.83823700e-02, -1.72155760e-02},
       {-7.33066117e-03,  4.52028774e-02,  2.10776459e-03,
        -2.29059849e-02, -1.79800682e-03},
       {-4.17450294e-02, -5.02838939e-02,  3.31477299e-02,
         3.92592289e-02, -2.51997039e-02},
       {-4.14615795e-02, -5.43926060e-02, -1.45335030e-02,
         6.20957538e-02,  5.84782138e-02},
       {-2.00675055e-02,  6.70586750e-02,  4.13000397e-02,
         6.30447194e-02,  5.85015528e-02},
       { 3.35741304e-02,  6.09588027e-02,  1.56591404e-02,
         2.00877190e-02, -1.86055398e-03},
       {-2.90145911e-03,  3.03660966e-02, -6.05866946e-02,
         4.23190519e-02,  1.58113204e-02},
       {-3.70103754e-02,  6.88227452e-03,  7.26304352e-02,
         1.92567278e-02, -4.75992262e-02},
       { 2.64672805e-02,  1.66119523e-02,  2.22319253e-02,
         4.70662378e-02, -2.10625343e-02},
       {-5.56484461e-02, -5.63680828e-02,  5.84343821e-02,
        -6.17238544e-02,  8.69610533e-03},
       {-4.56150994e-02, -3.45179508e-03, -2.30967999e-02,
         1.86677147e-02, -2.51373984e-02},
       {-5.06351963e-02, -4.71698456e-02,  2.60254107e-02,
        -5.27925082e-02, -5.09626530e-02},
       {-3.88317406e-02,  3.05807628e-02, -2.07573846e-02,
        -5.91184595e-04,  4.91537601e-02},
       { 4.68155183e-02,  1.98350083e-02,  1.06278509e-02,
         1.48332873e-02,  6.47845417e-02},
       { 4.62737307e-02,  1.42076155e-02,  1.09926825e-02,
         2.87993960e-02,  4.78269570e-02},
       { 1.83530487e-02,  5.07157482e-02,  4.61983234e-02,
        -6.02665208e-02,  4.79633100e-02},
       { 2.85957530e-02,  5.75723462e-02, -3.74793001e-02,
         3.76536958e-02,  6.08569644e-02},
       {-4.02198434e-02,  2.40082038e-03, -3.03614698e-02,
         2.83577871e-02, -8.21655989e-03},
       { 4.74528846e-04, -1.01608075e-02,  3.05369515e-02,
        -1.02131814e-02,  4.75079343e-02},
       { 3.83793712e-02, -3.73856258e-03,  8.55451170e-03,
        -3.21090338e-03, -2.36416217e-02},
       { 4.38250154e-02, -7.07455873e-02,  2.48136446e-02,
         7.25178886e-03, -3.99692617e-02},
       {-6.38861284e-02,  6.43163845e-02,  5.28510995e-02,
        -2.12372858e-02, -7.07824752e-02},
       {-4.08925489e-02,  4.02108021e-02, -1.07911387e-02,
        -6.67863339e-02,  2.53618844e-02},
       {-6.19078241e-02, -6.53239042e-02,  2.28588115e-02,
        -1.51793882e-02, -5.01522981e-02},
       { 3.12109143e-02,  4.26127017e-03, -3.10578365e-02,
        -3.22196670e-02, -4.26484495e-02},
       { 3.95708792e-02,  6.18323358e-03, -1.17156352e-03,
         4.72727679e-02,  3.59187718e-04},
       { 6.92720264e-02,  5.94076440e-02,  6.63334178e-03,
         6.10188916e-02,  3.65287671e-03},
       {-5.36988936e-02,  1.52439205e-02,  2.98463348e-02,
        -6.09916039e-02,  1.89562067e-02},
       {-1.58956880e-03, -6.21095896e-02,  2.73291264e-02,
         5.51620387e-02, -4.59026359e-02},
       {-4.55587469e-02, -1.22326175e-02,  3.13509963e-02,
        -3.31264199e-03,  1.62635837e-02},
       {-1.14987288e-02,  5.79557614e-03,  2.40017697e-02,
         2.68337298e-02, -5.73132597e-02},
       {-9.59921721e-03,  2.56048180e-02, -4.53321226e-02,
        -3.06023806e-02,  1.32042607e-02},
       {-5.71569577e-02,  6.93617272e-04,  2.84034736e-03,
         6.17461242e-02, -3.42708491e-02},
       {-3.23599279e-02,  5.18356524e-02, -1.65421590e-02,
        -2.84553203e-03, -2.71936953e-02},
       {-4.10239361e-02, -1.88309252e-02,  3.46458331e-02,
         6.20319657e-02,  3.75883728e-02},
       {-4.03864086e-02,  1.06429718e-02, -1.23032974e-02,
         6.58495054e-02,  6.08376004e-02},
       {-5.52926324e-02, -4.84359078e-02,  5.46631962e-02,
        -5.56676090e-02,  1.58416331e-02},
       {-3.70199643e-02, -7.47693982e-03, -3.89557751e-03,
         1.24054588e-02,  1.25080142e-02},
       {-3.21712764e-03, -3.44477706e-02,  1.95401181e-02,
        -5.91727756e-02, -1.17215328e-02},
       { 4.27833907e-02, -9.87346936e-03, -4.53610197e-02,
        -1.40254041e-02, -2.37341262e-02},
       { 9.45917610e-03,  3.91279766e-03, -3.52013744e-02,
         5.49195614e-03,  1.10448292e-02},
       { 4.42679897e-02,  6.78331107e-02, -4.36005220e-02,
        -4.28805538e-02, -5.97941130e-02},
       {-6.12980053e-02, -6.89325631e-02, -2.78734937e-02,
         4.70736772e-02,  1.29629485e-02},
       {-4.00494412e-03,  4.42188457e-02, -4.68273610e-02,
         5.78900054e-02,  6.40145242e-02},
       {-5.32230325e-02,  4.52336445e-02,  1.46124698e-03,
        -7.02600777e-02, -2.06698030e-02},
       { 3.54937650e-02, -9.15534329e-03,  6.51412550e-03,
         1.93752185e-03, -2.54402217e-02},
       { 3.28999222e-03,  2.23510414e-02,  4.86126840e-02,
         5.17875068e-02,  1.39666046e-03},
       {-1.82138383e-02,  2.00172458e-02,  4.97456789e-02,
         4.33315113e-02, -4.33265641e-02},
       { 2.52047852e-02,  3.14800106e-02, -6.21253662e-02,
         2.72922721e-02, -6.27782419e-02},
       { 9.33488272e-03,  2.52832230e-02, -3.33014689e-02,
         3.76111828e-02, -2.72734575e-02},
       {-4.15767776e-03,  6.05941489e-02, -2.21261997e-02,
         4.86817956e-02,  2.57311650e-02},
       { 2.76346635e-02, -2.59211995e-02,  4.00985852e-02,
        -4.44584386e-03, -4.43415046e-02},
       {-6.54803142e-02, -3.15846764e-02, -5.71156032e-02,
        -6.17526062e-02, -4.41507176e-02},
       { 1.41111678e-02, -2.10109334e-02, -3.32094990e-02,
         4.98719737e-02,  4.44939621e-02},
       {-4.49539766e-05,  4.03649248e-02, -1.18258633e-02,
        -5.33408299e-02, -1.45350751e-02},
       {-4.22028080e-02,  5.17883897e-02, -2.65442599e-02,
        -2.93591004e-02, -6.04382791e-02},
       {-3.54741588e-02,  2.62596179e-02, -4.29318845e-03,
         5.32819778e-02, -4.24475782e-02},
       { 6.93620229e-03,  4.76915427e-02, -4.74315733e-02,
         4.19349000e-02, -4.64714924e-03},
       { 3.29473168e-02,  6.40800148e-02, -3.42497230e-02,
         6.42122477e-02,  6.59446865e-02},
       {-9.68399365e-03,  2.63395105e-02, -3.95445675e-02,
        -7.40039535e-03, -4.19588052e-02},
       {-6.34283498e-02,  9.56661999e-03,  1.26540922e-02,
        -9.28524137e-03, -1.64694078e-02},
       { 3.18391994e-02, -4.25915085e-02,  6.56786934e-02,
        -6.40128478e-02, -1.93334911e-02},
       { 7.22184554e-02, -1.43554183e-02, -1.07073896e-02,
         2.89504305e-02,  1.98933817e-02},
       { 3.76724713e-02, -5.67706637e-02, -2.01197211e-02,
         3.08143739e-02,  2.08328683e-02},
       { 2.06957906e-02,  4.74224538e-02,  2.92445775e-02,
        -1.42628038e-02, -4.94529009e-02},
       {-5.28611988e-02, -4.45167907e-02,  6.34135231e-02,
         4.98277768e-02,  1.35220075e-02},
       { 7.27341026e-02,  2.72539034e-02,  4.21142727e-02,
        -4.71015312e-02, -4.49538045e-02},
       { 2.19473988e-02, -4.94458005e-02,  5.90772852e-02,
         2.94365417e-02,  2.39554904e-02},
       {-5.21043427e-02, -3.68747450e-02, -4.34735641e-02,
        -4.85889949e-02,  1.42745329e-02},
       { 4.10952047e-02, -6.25822693e-02, -1.63074117e-02,
        -3.91033217e-02,  3.25128473e-02},
       { 5.07734008e-02,  3.77832283e-03,  6.74350560e-02,
        -3.90461013e-02, -8.63092206e-03},
       {-5.08796200e-02, -3.84877585e-02, -3.42558175e-02,
        -1.86233949e-02, -5.81393279e-02},
       {-5.45315295e-02, -2.03210283e-02,  5.42864352e-02,
        -4.71359529e-02,  2.56029665e-02},
       {-3.08556445e-02, -4.63097245e-02, -6.58417866e-02,
        -6.84005320e-02, -3.72106507e-02},
       {-3.23029123e-02,  2.58277748e-02, -4.02816795e-02,
         5.89356646e-02,  4.05484661e-02},
       { 3.34205888e-02, -3.87947820e-02,  3.39404270e-02,
        -4.67949398e-02,  4.21013795e-02},
       { 2.23418493e-02, -6.21450413e-03, -1.69272453e-03,
         4.58481684e-02,  3.46812531e-02},
       { 7.68840360e-03,  2.37869453e-02, -1.15014147e-02,
         6.18901141e-02,  3.74586992e-02},
       {-4.18670587e-02, -2.78424490e-02,  8.85096379e-03,
         4.56083380e-02,  4.45093028e-02},
       { 4.21976112e-02,  6.41414747e-02,  4.83818427e-02,
        -2.69954223e-02, -3.19501609e-02},
       {-5.93863539e-02, -3.68450060e-02,  4.55805585e-02,
        -4.10221592e-02, -4.38936837e-02},
       { 5.73811382e-02, -9.46698245e-03,  2.83831637e-02,
        -7.00906515e-02, -2.66565531e-02},
       { 5.85582703e-02, -6.42959327e-02,  4.22303863e-02,
         6.68942854e-02,  5.65713868e-02},
       {-2.65878178e-02,  5.88526838e-02, -6.46676868e-02,
        -7.15911612e-02, -5.94476871e-02},
       {-5.64643219e-02, -4.36396003e-02,  1.22550093e-02,
         4.89023477e-02,  6.23669736e-02},
       {-4.45897058e-02, -4.38654907e-02, -3.19578685e-02,
         1.42460328e-03,  2.25132629e-02},
       { 1.55884903e-02, -2.86382250e-02, -2.01127231e-02,
         6.16911463e-02,  7.81505776e-04},
       { 5.66081926e-02,  1.35934157e-02,  3.32790576e-02,
        -6.09999038e-02,  1.32682398e-02},
       { 1.18784001e-02, -6.52266517e-02,  1.62006319e-02,
         5.20623624e-02, -4.77549955e-02},
       { 9.39267129e-03, -1.09593999e-02, -3.03165577e-02,
         4.10245620e-02,  4.96602394e-02},
       { 2.61103325e-02, -4.15303335e-02, -5.86175285e-02,
         3.29203978e-02,  1.49317784e-03},
       { 7.26655424e-02, -6.03681132e-02, -9.62816738e-03,
        -2.31144251e-03, -3.16092372e-02},
       { 6.92763031e-02, -3.18115726e-02, -4.02430072e-03,
         1.61014143e-02, -1.66233815e-02},
       {-4.66772988e-02,  1.11660780e-02,  6.20791921e-03,
        -2.99095362e-02, -3.28253657e-02},
       { 7.20688403e-02, -1.18858106e-02, -6.63673356e-02,
        -1.87070705e-02, -3.18608657e-02},
       {-4.68598083e-02,  5.49724288e-02,  4.86093499e-02,
        -4.93734665e-02,  4.11577756e-03},
       {-4.17424031e-02,  5.67570999e-02,  3.58655825e-02,
        -4.62899804e-02, -4.58157323e-02},
       { 7.17660338e-02,  1.87459439e-02,  5.80185205e-02,
        -3.33891530e-03, -6.71813544e-03},
       {-5.88852912e-02, -3.28581147e-02, -8.40559602e-03,
        -3.67848128e-02,  5.19114286e-02},
       { 1.08990334e-02,  1.59565751e-02, -1.45592708e-02,
         4.86449748e-02, -6.71777502e-02},
       { 2.29867380e-02, -1.84884902e-06, -6.80079460e-02,
        -6.32324219e-02, -2.91219857e-02},
       { 1.90296676e-02, -5.47754578e-03, -5.31851575e-02,
         4.43093926e-02, -2.67744679e-02},
       { 3.40984017e-02,  6.51394650e-02, -4.75616567e-02,
        -4.58193989e-03,  6.10324591e-02},
       { 4.87042442e-02, -3.13977152e-02,  5.72401658e-02,
        -4.66862991e-02, -4.90756929e-02},
       {-2.95218974e-02,  7.41240568e-03, -3.17297168e-02,
        -4.77093719e-02,  3.34684434e-03},
       {-5.70530854e-02,  1.05711520e-02,  1.83818210e-02,
         4.62395065e-02,  5.30063966e-03},
       { 5.83618656e-02, -4.71468419e-02,  4.88511845e-02,
        -3.62070277e-02,  1.37786837e-02},
       { 4.58974950e-03, -1.39413802e-02,  6.60760002e-03,
        -3.71754020e-02, -2.70780586e-02},
       { 4.82945666e-02, -6.63818652e-03,  1.24056078e-02,
         2.59746634e-03,  6.00290000e-02},
       {-4.46769670e-02,  6.86261877e-02, -5.25294617e-02,
        -6.87338710e-02,  1.46415038e-02},
       { 1.44350799e-02,  2.40438059e-02,  1.10952146e-02,
         6.54100627e-02,  2.66381260e-02},
{ 3.99983414e-02,  2.43461803e-02, -5.94877116e-02,
        -1.14438031e-02,  5.51459715e-02},
       { 4.06200550e-02,  5.38841337e-02,  6.05212003e-02,
        -5.51389307e-02, -1.23442113e-02},
       { 6.91382959e-02,  3.59103754e-02,  4.89211641e-02,
        -7.06473216e-02,  2.75392998e-02},
       { 9.29658022e-03,  4.40178514e-02,  1.83980130e-02,
        -1.75577030e-03, -1.10795684e-02},
       { 7.20133036e-02,  1.41699007e-02,  5.59180342e-02,
        -1.01195294e-02, -5.62061705e-02},
       { 4.75039668e-02, -1.02870427e-02, -1.51169123e-02,
        -5.80878742e-02, -4.93006632e-02},
       {-2.70252489e-02,  2.31872108e-02,  3.14362289e-04,
         1.11329462e-02,  2.14342587e-02},
       { 1.67595595e-02,  1.66786816e-02,  2.85575185e-02,
         2.16190647e-02,  8.02684482e-03},
       {-4.69193161e-02,  3.90604436e-02, -4.68627997e-02,
        -1.90899253e-03, -1.75308269e-02},
       {-2.49990784e-02,  1.55695593e-02, -2.32544411e-02,
         8.14111787e-04, -2.60716788e-02},
       { 1.89994387e-02,  3.28249969e-02,  6.68008476e-02,
        -1.17893191e-02, -7.94461835e-03},
       { 4.58157696e-02,  5.37062883e-02,  4.77191433e-02,
        -2.43121013e-02, -5.85543551e-02},
       {-5.15517481e-02, -5.78708462e-02, -3.72024514e-02,
         3.79496291e-02,  3.10758241e-02},
       {-4.70758714e-02,  6.02860004e-02, -6.03892207e-02,
        -6.21127412e-02,  3.78097706e-02},
       {-1.94785111e-02,  2.49292515e-02, -3.81267853e-02,
        -1.75291637e-03, -2.86207441e-02},
       {-5.04002608e-02,  3.91714312e-02,  1.82610210e-02,
         5.79137430e-02,  5.05930260e-02},
       { 6.27084672e-02, -3.71481963e-02,  3.10074575e-02,
        -6.57782331e-03, -2.38523744e-02},
       {-9.10359435e-04, -1.63742993e-02, -5.37847988e-02,
        -2.45011989e-02,  6.64289370e-02},
       {-1.32462252e-02, -1.30667258e-02,  4.07453328e-02,
         6.31811097e-02, -3.13160308e-02},
       {-5.19899055e-02, -3.62151042e-02,  5.94365448e-02,
         5.84100224e-02, -6.33203685e-02},
       { 8.60667694e-03,  3.90195521e-03,  5.91886565e-02,
        -5.17754704e-02,  3.74112539e-02},
       {-6.37546107e-02, -6.67398423e-02,  5.17329276e-02,
        -3.16385552e-02, -5.18533811e-02},
       {-5.07950000e-02, -6.13438897e-02,  5.02902344e-02,
        -7.14893118e-02,  1.75505299e-02},
       {-3.18999253e-02,  2.42200140e-02, -3.57176401e-02,
         2.10464410e-02, -4.10585850e-02},
       { 9.22001898e-04, -7.05135837e-02,  3.58145162e-02,
         3.45415249e-02, -3.25670876e-02},
       {-3.05527244e-02,  4.71349247e-02,  7.12709427e-02,
         4.24130820e-02, -3.23682167e-02},
       { 4.92290892e-02,  1.67456586e-02,  6.96256086e-02,
        -2.00195219e-02,  2.89169215e-02},
       {-4.83285543e-03, -2.59891413e-02, -5.56104407e-02,
         6.46933466e-02, -4.19998430e-02},
       { 2.82692574e-02, -1.07710473e-02,  5.54345660e-02,
        -3.17996889e-02, -1.13780517e-02},
       { 3.01251188e-03, -3.75563987e-02,  1.53883751e-02,
        -5.40743992e-02,  1.34248333e-02},
       { 7.12844953e-02,  6.70836344e-02, -6.46173805e-02,
         2.10170075e-02,  4.84926999e-02},
       { 5.03926873e-02,  9.87829082e-03,  9.15521383e-03,
         2.49623992e-02, -2.49298885e-02},
       { 4.41781804e-02, -6.42023385e-02,  2.58626267e-02,
         1.57796387e-02,  9.44374595e-03},
       {-2.47948933e-02, -3.51104774e-02,  1.24849519e-02,
         5.25670052e-02,  5.47212847e-02},
       {-2.74405051e-02,  2.88928784e-02,  2.03213412e-02,
        -4.67793494e-02, -1.52786253e-02},
       { 4.22679372e-02,  2.55342219e-02,  3.82779352e-02,
         4.82151285e-02, -3.77661772e-02},
       {-1.39058232e-02,  2.44873222e-02,  3.69146653e-02,
         1.17430268e-02,  3.27245221e-02},
       {-2.26686355e-02, -5.50950728e-02, -4.21940312e-02,
         2.89968401e-03, -2.32884591e-03},
       { 6.62218779e-02,  7.80508621e-03, -1.64623447e-02,
        -2.30240077e-03,  1.55593120e-02},
       {-5.92717044e-02,  6.14227802e-02,  3.88253964e-02,
        -5.73750958e-02,  5.80802597e-02},
       {-4.38974909e-02,  5.81923462e-02, -5.23100607e-02,
         5.32639250e-02, -9.05233528e-03},
       { 6.90358505e-02, -1.82212621e-03,  6.15660660e-02,
         4.11701091e-02, -6.02462552e-02},
       { 4.12025396e-03, -6.90363944e-02,  2.31229551e-02,
        -7.80176604e-03, -2.33319532e-02},
       {-1.44797955e-02, -6.05430640e-02, -3.81613360e-03,
        -5.60589656e-02, -3.63166519e-02},
       { 1.96001567e-02, -9.23078321e-03, -1.57731418e-02,
        -7.21802330e-03, -4.92357612e-02},
       { 9.34117939e-03, -3.37574602e-04,  3.41916806e-03,
         3.82795446e-02,  5.24548814e-04},
       { 5.56639656e-02,  3.09344698e-02, -1.30313439e-02,
        -2.73925569e-02, -5.41967805e-03},
       {-1.13653131e-02, -2.99234819e-02,  6.15785681e-02,
        -1.54373692e-02,  1.29145123e-02},
       {-4.28286120e-02, -1.17340162e-02,  4.19044904e-02,
         1.12870717e-02,  2.61983611e-02},
       {-1.11306254e-02,  1.71836298e-02, -1.59816220e-02,
         1.10492669e-02, -4.23296541e-02},
       {-4.99311127e-02, -2.14568246e-02,  4.18913104e-02,
         2.04041172e-02, -2.71082055e-02},
       { 5.18104434e-02, -4.43660617e-02,  2.29663905e-02,
         6.36238828e-02,  3.96528728e-02},
       {-9.77427419e-03,  3.31017002e-02,  8.22919142e-03,
        -6.70793429e-02,  6.35420829e-02},
       { 6.86585009e-02, -5.59760332e-02, -1.80674810e-02,
         2.35187132e-02, -1.18903210e-02},
       { 2.43896693e-02, -4.99781594e-02,  6.36388808e-02,
        -1.32676363e-02,  8.17108061e-03},
       { 7.13675423e-03, -8.59149918e-03, -5.93957491e-02,
         4.30490673e-02, -4.57409583e-02},
       {-4.55066077e-02,  2.18202975e-02,  6.40608147e-02,
         5.65018803e-02, -3.34477872e-02},
       {-2.46586017e-02,  2.40906812e-02,  6.51355758e-02,
         6.06338531e-02,  4.57950719e-02},
       {-6.83281850e-03,  1.81335174e-02,  3.97313461e-02,
         6.06886260e-02,  5.43884672e-02},
       {-2.36885212e-02, -4.70675118e-02,  7.20831677e-02,
         2.87033785e-02,  1.31076127e-02},
       {-8.06005765e-03, -5.49608432e-02,  4.56891954e-02,
        -2.87716966e-02,  2.41973046e-02},
       { 5.54540232e-02,  5.83579205e-02,  5.17717190e-02,
         2.30062455e-02,  5.53184077e-02},
       { 2.97550131e-02,  6.84767142e-02, -6.28761426e-02,
         5.96374366e-03,  3.31789181e-02},
       { 4.10920661e-03,  3.93481590e-02, -6.43834146e-03,
        -6.40827343e-02, -1.06388181e-02},
       {-5.58356754e-02, -6.90155402e-02,  6.84019625e-02,
        -2.95474418e-02, -4.33156416e-02},
       {-5.96698523e-02, -4.16473784e-02,  9.99458786e-03,
        -5.25793880e-02, -5.39456196e-02},
       {-4.94647697e-02, -5.78838103e-02,  4.00424413e-02,
        -3.41163836e-02, -5.40146828e-02},
       {-5.73917851e-02, -5.30867539e-02, -4.61409613e-02,
         3.95840518e-02, -4.36296463e-02},
       {-2.07054652e-02, -3.35846432e-02, -5.74248619e-02,
         1.06564555e-02, -4.38679717e-02},
       { 5.18255569e-02, -4.67772745e-02, -2.63471622e-02,
         4.76342551e-02,  7.45093543e-03},
       {-5.29335160e-03, -3.56425643e-02, -8.95958394e-03,
         4.19200696e-02, -3.65095586e-02},
       {-3.89971994e-02, -5.24053611e-02, -5.21586202e-02,
         8.57922714e-03,  3.66847627e-02},
       { 4.68018018e-02, -2.41185091e-02,  3.59060280e-02,
        -1.77924242e-02, -3.89439017e-02},
       {-5.63501231e-02, -1.11807827e-02,  6.68702498e-02,
         3.42867263e-02,  6.22759666e-03},
       { 4.31034528e-03, -3.69849652e-02, -4.69293669e-02,
         2.06319857e-02, -6.74050078e-02},
       {-2.52570808e-02, -6.50401562e-02, -3.28534506e-02,
         6.45302460e-02,  1.96630489e-02},
       { 4.29443829e-02,  3.13613862e-02,  5.23575097e-02,
         4.68921401e-02,  3.66149843e-02},
       { 1.15351351e-02,  2.21754517e-02, -6.59745708e-02,
        -6.64726272e-02,  3.78963947e-02},
       {-4.33207769e-03,  1.09661473e-02,  5.91843501e-02,
        -1.85434408e-02, -5.58904223e-02},
       { 2.33902782e-03, -5.74814416e-02,  1.21105444e-02,
         2.25184560e-02, -4.36834712e-03},
       { 6.40831068e-02, -5.45580685e-02,  4.80649509e-02,
        -6.88244626e-02,  1.25220297e-02},
       {-5.68065532e-02,  4.22672108e-02,  4.63283136e-02,
        -5.93359247e-02, -4.06878032e-02},
       {-4.59695756e-02, -4.04794775e-02, -1.54794985e-02,
         1.73618663e-02,  5.82368411e-02},
       { 4.54453453e-02,  5.02745472e-02, -2.50227153e-02,
         5.05060963e-02, -1.10414559e-02},
       { 6.47466481e-02,  2.21715327e-02, -3.34427692e-02,
        -1.61128230e-02,  5.02430648e-03},
       {-4.07109782e-03, -5.63226594e-03,  6.96663111e-02,
        -1.45634515e-02,  6.77789077e-02},
       {-7.92129213e-05,  6.79086195e-03, -5.62464856e-02,
         3.99828516e-02, -3.63520160e-03},
       {-4.11713906e-02, -2.31548827e-02, -4.25631665e-02,
        -1.23954397e-02, -5.25502674e-03},
       {-6.58971071e-02,  6.24647439e-02,  2.56367102e-02,
         3.58175300e-02, -4.98826196e-03},
       { 6.02087416e-02, -5.43015189e-02, -1.95345581e-02,
         1.06227230e-02,  4.21632379e-02},
       { 4.53631803e-02, -6.28779456e-02,  2.56683957e-02,
         1.59836113e-02, -1.03265168e-02},
       {-4.67268266e-02, -3.56181338e-02, -2.65131220e-02,
         7.14991242e-03,  1.00354543e-02},
       { 6.31661639e-02,  3.96479405e-02,  5.02787046e-02,
        -1.32043632e-02,  6.72371686e-02},
       { 5.24077639e-02, -2.74850782e-02, -3.36491428e-02,
         3.90715264e-02,  4.83915769e-02},
       { 7.14720786e-02, -3.80520336e-02,  3.74575779e-02,
         4.57857139e-02,  3.29302177e-02},
       { 1.74699508e-05,  2.08740495e-02,  4.43823710e-02,
        -4.11353633e-02,  3.48971635e-02},
       { 9.78742167e-03, -3.46775651e-02, -6.02470804e-03,
         1.29051367e-02, -3.16789374e-02},
       { 5.55374585e-02,  5.01439162e-03, -1.81081146e-02,
        -4.71687578e-02,  1.35769248e-02},
       { 5.50261736e-02, -3.65142375e-02, -3.29704676e-03,
        -1.21239480e-02, -1.96502195e-03},
       { 2.69252341e-02, -3.95480096e-02, -2.90967468e-02,
        -6.66428581e-02, -7.16294423e-02},
       {-5.74678592e-02,  2.52230521e-02,  5.59548065e-02,
        -2.94825602e-02,  2.19431464e-02},
       {-4.69742306e-02,  5.78177441e-03,  2.67905481e-02,
        -5.97268529e-02,  1.91301033e-02},
       { 5.45566082e-02, -6.67076632e-02,  5.77167049e-02,
        -4.10393439e-02, -6.35972321e-02},
       {-4.17153277e-02,  6.15449138e-02, -3.45766470e-02,
         5.18436208e-02,  6.78205118e-02},
       {-4.81210910e-02,  4.02172580e-02,  6.40113950e-02,
        -1.53341694e-02,  6.30894080e-02},
       { 5.26332930e-02, -2.25748122e-02, -2.45729554e-02,
        -6.91098273e-02,  1.34817054e-02},
       {-3.99651937e-02,  2.90140267e-02,  2.55149677e-02,
        -4.05314518e-03,  6.77552819e-02},
       {-6.48620054e-02, -5.94832152e-02,  5.15232421e-02,
         2.52079517e-02,  6.30318075e-02},
       { 6.75908551e-02,  2.46747863e-02, -3.69198099e-02,
         6.49836427e-03,  2.76496448e-02},
       { 9.21759289e-03,  6.16412275e-02,  3.94990258e-02,
        -2.09906250e-02, -8.98725726e-03},
       {-6.42777160e-02,  3.50511335e-02,  5.05291671e-02,
         6.50014728e-02,  5.70791885e-02},
       { 6.48989528e-02,  5.10832816e-02, -1.50449919e-02,
        -6.34501651e-02, -4.41399962e-02},
       {-2.07179263e-02,  5.21898903e-02, -1.52976746e-02,
        -1.97834056e-02, -1.45444588e-03},
       { 6.96407557e-02,  1.22240800e-02, -7.14209955e-03,
         1.28632523e-02, -5.42028099e-02},
       {-6.36112988e-02, -6.72487691e-02, -1.84393080e-03,
         1.20116526e-03, -4.70617041e-03},
       {-1.83396321e-02, -4.36723009e-02,  3.81397754e-02,
        -4.56974097e-02,  2.50787311e-03},
       { 7.15767443e-02, -3.17870602e-02,  3.58943790e-02,
        -5.10773808e-02, -1.29866796e-02},
       {-5.80846183e-02,  5.25888689e-02,  1.27366465e-02,
         8.85491818e-03, -3.58276777e-02},
       { 1.94439180e-02, -6.05582492e-03,  4.49263640e-02,
         5.54301254e-02, -5.07899262e-02},
       {-1.38000567e-02, -6.22702911e-02,  4.93664434e-03,
        -7.00785965e-02, -9.99657158e-03},
       {-1.93067279e-03, -5.50341122e-02, -5.78333810e-02,
        -2.27715727e-03, -3.82811250e-03},
       { 2.87666661e-03, -2.45969649e-02,  1.47667583e-02,
         1.01830270e-02,  3.93937752e-02},
       {-2.80972235e-02, -6.04132190e-03,  6.04690388e-02,
         4.67452332e-02,  2.30908263e-02},
       { 2.18522679e-02, -5.44925369e-02,  2.97912266e-02,
        -2.02549957e-02,  6.58975318e-02},
       { 5.39813377e-02,  5.28766774e-02, -3.92159522e-02,
        -1.97794307e-02,  5.06869219e-02},
       {-3.57942395e-02, -4.52019535e-02, -6.73257634e-02,
         3.62971164e-02, -6.61216900e-02},
       {-3.21655795e-02, -1.79119650e-02, -3.76413241e-02,
        -2.81249937e-02,  9.70097166e-03},
       {-3.61163504e-02,  3.34875360e-02,  4.66183014e-03,
        -1.92559306e-02,  1.49917677e-02},
       {-5.37073798e-02,  4.22645174e-02,  5.12105711e-02,
        -2.90850597e-03, -1.47741036e-02},
       {-5.03852330e-02, -1.68919414e-02,  3.42186354e-02,
        -6.50868565e-02, -6.67161718e-02},
       { 3.11011598e-02, -3.19582671e-02, -5.11621237e-02,
         1.72639545e-02, -5.68845235e-02},
       {-3.86861939e-05, -2.35633133e-03, -5.40526323e-02,
        -5.59998900e-02, -1.31011531e-02},
       { 4.27024849e-02, -2.56869569e-02,  5.58648631e-02,
         5.31329922e-02,  6.19096011e-02},
       {-5.18184714e-02, -2.05425429e-03, -1.73184015e-02,
        -1.06537750e-03, -4.81913462e-02},
       { 1.16617903e-02, -3.97046916e-02, -6.22261241e-02,
        -2.81978529e-02, -7.39865657e-03},
       { 6.68509975e-02,  7.45613687e-03,  6.13522641e-02,
         5.58036678e-02, -4.35530432e-02},
       {-3.46486680e-02,  1.17087904e-02, -6.51926026e-02,
         2.87219230e-02, -5.22449985e-02},
       { 4.52545136e-02, -2.88012885e-02,  4.40606214e-02,
        -5.88363148e-02, -4.32806425e-02},
       {-6.24230551e-03, -6.04261160e-02,  1.04685908e-03,
         2.13201419e-02, -4.21749279e-02},
       {-4.43767495e-02, -6.01808056e-02,  6.96519539e-02,
         4.67753373e-02, -4.38977778e-02},
       { 6.04222901e-02, -1.33835454e-03, -1.58242732e-02,
        -5.88131696e-02,  1.37869380e-02},
       {-1.18074510e-02,  1.47640295e-02, -6.17211424e-02,
        -5.68291619e-02, -3.77350748e-02},
       { 5.50682619e-02, -3.36592942e-02, -3.45754600e-03,
         2.94833425e-02,  5.30631617e-02},
       { 2.11436562e-02, -1.72370896e-02, -2.96307113e-02,
         4.29549292e-02,  5.16460091e-02},
       { 2.18397323e-02,  5.83219007e-02,  2.28879713e-02,
         1.44004887e-02, -6.91541359e-02},
       {-1.82757098e-02, -3.47864628e-02,  4.66067754e-02,
        -1.58415660e-02, -1.29147638e-02},
       {-3.50626558e-02, -3.09038553e-02,  2.93967705e-02,
        -1.96382720e-02,  2.12201825e-03},
       {-1.62121393e-02, -4.90396172e-02,  1.00443065e-02,
         1.52442865e-02,  5.75859249e-02},
       {-4.59032319e-02, -5.71540408e-02, -6.73315600e-02,
         1.02840271e-02,  6.40792623e-02},
       { 6.09603748e-02,  1.96840651e-02, -1.72673594e-02,
        -1.72802806e-02, -4.78997231e-02},
       { 8.69796239e-03, -5.30266985e-02, -1.73253845e-02,
        -1.33627001e-02,  1.51261669e-02},
       { 2.56604012e-02,  6.78550778e-03,  5.25638573e-02,
        -1.45216845e-02,  3.61655205e-02},
       { 4.26729731e-02,  1.23241637e-02,  4.80287820e-02,
        -4.10039499e-02, -4.07001376e-02},
       { 6.37721345e-02, -1.69457123e-02, -5.27374595e-02,
        -6.70699328e-02, -1.19234258e-02},
       { 1.95807777e-02,  6.44356236e-02, -3.81978862e-02,
         5.82827106e-02, -6.12896755e-02},
       { 3.48086394e-02,  3.75089906e-02, -5.91606535e-02,
         2.20417231e-02, -2.58893631e-02},
       {-2.70087514e-02,  2.62889881e-02, -2.84198895e-02,
         6.44708946e-02,  2.67134551e-02},
       { 9.90639254e-03, -2.96154413e-02,  3.61250378e-02,
        -6.31108060e-02, -4.98139746e-02},
       { 3.35621424e-02,  8.26253835e-03, -6.40982240e-02,
         4.97075245e-02,  5.01035005e-02},
       {-7.34556466e-03,  1.51943201e-02, -3.90616171e-02,
        -1.30547201e-02, -3.41782086e-02},
       {-3.02631110e-02, -4.00973149e-02,  7.15112314e-02,
        -2.03076266e-02, -1.57325901e-02},
       { 1.67757533e-02,  5.18419892e-02, -1.01861628e-02,
         5.64455576e-02,  1.19336843e-02},
       {-3.90431136e-02, -4.35377471e-02,  1.69801377e-02,
         3.26734921e-03, -2.06972547e-02},
       { 3.89679559e-02, -5.27264848e-02, -2.35873144e-02,
        -2.54683867e-02,  1.77000705e-02},
       {-5.27955331e-02,  6.85624629e-02, -5.71691133e-02,
        -1.65057462e-02, -5.75614981e-02},
       {-5.36391810e-02, -5.73883299e-03, -1.76020805e-02,
        -7.02352598e-02, -1.04491867e-03},
       { 5.93328178e-02,  6.08658716e-02, -3.93057987e-02,
         1.09872306e-02, -9.34722554e-03},
       {-2.27153301e-03, -4.09957767e-02, -4.57718782e-02,
         1.76540879e-03,  2.15274245e-02},
       { 6.69208318e-02, -3.79608059e-03,  3.22293527e-02,
        -3.43506001e-02,  1.83194932e-02},
       {-1.25093823e-02,  2.49840482e-03, -1.45346494e-02,
         2.01682504e-02,  5.70264906e-02},
       { 3.29627804e-02,  3.81059982e-02, -3.40471114e-03,
         5.07021397e-02,  5.55283166e-02},
       { 6.91225901e-02, -4.78856154e-02,  1.74664184e-02,
        -1.53282518e-02,  5.75947464e-02},
       { 1.66327339e-02,  3.25449035e-02, -5.93558066e-02,
        -4.99778315e-02,  3.88343558e-02},
       {-5.19095473e-02, -2.25863978e-02,  1.83520024e-03,
        -3.42702568e-02,  1.17795337e-02},
       {-6.50104061e-02,  6.51895031e-02,  5.23767807e-02,
        -3.12435869e-02,  1.43260015e-02},
       {-1.58065241e-02, -4.72466163e-02, -4.44331504e-02,
        -2.75695156e-02, -4.68534231e-02},
       { 4.32644896e-02, -2.42669042e-02, -5.60488328e-02,
         4.63915244e-02, -2.05635633e-02},
       { 5.93654066e-02,  6.14543967e-02,  3.43640335e-02,
         2.51333993e-02,  3.43942195e-02},
       { 6.33906126e-02, -2.52423305e-02,  2.97159422e-02,
        -6.69128820e-02,  4.83404882e-02},
       {-4.74336371e-03,  4.45774011e-02,  4.61941399e-02,
        -5.26044071e-02, -3.81596014e-03},
       { 8.18778854e-03, -1.62819009e-02, -8.11777823e-03,
         1.32102463e-02, -5.70203960e-02},
       { 5.70821576e-02, -2.24267635e-02,  6.83615133e-02,
         3.39592397e-02, -3.60298939e-02},
       {-2.13518254e-02, -4.01892737e-02,  5.12639284e-02,
        -6.44854689e-03, -7.06375167e-02},
       {-1.12744411e-02,  1.75577831e-02, -2.32386291e-02,
        -2.72299210e-03,  6.51197881e-02},
       { 7.81116134e-04,  6.10350585e-03, -2.36730576e-02,
         3.61666456e-02, -6.01617508e-02},
       { 3.65790203e-02, -5.68103716e-02, -1.73543708e-03,
        -3.43046747e-02, -4.55347151e-02},
       {-2.38079596e-02,  4.75951843e-02,  3.93886864e-03,
         4.79616150e-02,  3.20248939e-02},
       { 3.22621129e-02,  4.16399688e-02,  4.72565554e-02,
        -6.60583228e-02,  3.42172198e-02},
       {-2.94078570e-02, -7.03126341e-02, -3.14754993e-02,
        -2.11889390e-02,  5.68073541e-02},
       {-3.48823965e-02,  3.23562361e-02,  3.46489586e-02,
        -5.26530715e-03, -4.26391773e-02},
       { 4.07799594e-02,  3.31096984e-02, -2.32408084e-02,
         2.90340725e-02, -2.13421527e-02},
       {-2.68925838e-02,  5.21383137e-02,  1.58554111e-02,
         6.47043809e-02, -1.33150704e-02},
       { 3.84235792e-02,  1.91959795e-02,  6.37082756e-02,
        -3.01469062e-02, -4.98168804e-02},
       { 2.53251903e-02, -1.94782205e-02,  6.02375530e-02,
        -5.24492972e-02, -3.71323270e-03},
       {-1.61545034e-02,  1.82712357e-02,  6.24707006e-02,
         2.05600299e-02,  3.65623310e-02},
       {-2.86211986e-02, -3.95068787e-02,  6.68525621e-02,
        -2.29897387e-02,  3.00359745e-02},
       {-2.55817007e-02, -3.14658172e-02, -7.55234715e-03,
        -4.15368266e-02,  5.73065020e-02},
       { 6.08158149e-02,  3.59894708e-02,  2.88013984e-02,
         2.31439397e-02, -2.86833234e-02},
       {-2.44984571e-02,  6.05785623e-02, -5.06250411e-02,
         4.70942371e-02, -3.31687964e-02},
       { 4.99803089e-02, -3.84904183e-02,  3.13108303e-02,
        -1.70950312e-02,  4.99235429e-02},
{-2.13938635e-02,  3.19385156e-02,  6.09607659e-02,
        -1.47584360e-02,  9.15102661e-03},
       {-4.65280861e-02,  2.14145072e-02, -5.82163148e-02,
         3.33083235e-02,  2.78432146e-02},
       { 9.96588077e-03,  1.91207007e-02,  6.37066141e-02,
         2.45799068e-02, -2.46939696e-02},
       {-4.09704596e-02, -6.55635372e-02, -6.52611405e-02,
         5.96887292e-03, -2.56147212e-03},
       { 6.83452934e-02, -3.26718651e-02, -6.33529648e-02,
        -5.71608767e-02, -5.80783486e-02},
       { 1.76322907e-02,  1.57160852e-02, -3.29919567e-04,
        -3.58136334e-02, -4.20945138e-02},
       {-8.65341816e-03,  2.18064915e-02,  2.67801471e-02,
        -3.24780643e-02,  2.51136646e-02},
       {-1.08843986e-02, -5.66712357e-02,  4.43871133e-02,
         6.47080690e-03, -6.73736930e-02},
       { 1.18184173e-02,  1.50319301e-02,  3.58677382e-04,
        -5.93919903e-02, -3.75745557e-02},
       {-6.13120198e-02,  6.39616922e-02, -4.62444276e-02,
        -3.63212265e-02,  4.67869639e-02},
       {-1.87440217e-02, -1.67594803e-03,  2.42957077e-03,
        -3.00507415e-02,  2.21060179e-02},
       {-4.32558209e-02,  2.18557026e-02,  6.17074966e-02,
         5.96484467e-02, -5.85737973e-02},
       {-2.55892221e-02, -1.02630910e-02, -1.12175047e-02,
        -1.44309765e-02,  5.35649396e-02},
       {-8.97216517e-03, -7.03411177e-02, -5.40215522e-02,
        -5.75510412e-02,  4.79980074e-02},
       {-3.97971598e-03, -1.95634477e-02, -2.34879497e-02,
         4.07340610e-03, -6.88403621e-02},
       {-3.80068608e-02,  1.54529726e-02,  3.25851738e-02,
        -1.21657895e-02,  3.34892757e-02},
       { 6.38022274e-02, -4.22825888e-02, -6.81370646e-02,
         6.19084202e-03,  5.62114418e-02},
       { 3.18577923e-02, -6.15676343e-02, -1.45979458e-02,
        -2.11706609e-02, -3.16018164e-02},
       {-3.89025062e-02, -7.37062101e-06,  1.02409283e-02,
        -1.61017291e-02,  4.74638119e-02},
       {-3.99637185e-02, -1.94387771e-02, -3.31033431e-02,
        -2.77518332e-02, -2.15924717e-02},
       { 6.02902612e-03,  6.74168989e-02,  6.76814392e-02,
        -1.77061055e-02, -4.59170677e-02},
       { 5.73286489e-02,  2.72783730e-03, -5.98059744e-02,
         1.73840821e-02,  3.04082986e-02},
       { 3.44424993e-02,  5.03732711e-02,  3.81568596e-02,
         2.89356057e-02,  5.69139756e-02},
       { 5.97349666e-02,  5.15072867e-02,  3.57426666e-02,
        -3.66460234e-02,  3.01601309e-02},
       { 5.93875125e-02, -1.32337045e-02, -4.54269722e-02,
         4.01345529e-02,  6.37663454e-02},
       { 5.79402819e-02, -3.50860506e-02,  6.73510283e-02,
        -4.31048647e-02,  5.52709848e-02},
       {-5.73154092e-02, -6.74000904e-02, -2.36986540e-02,
        -2.23808810e-02, -8.15516897e-03},
       { 6.99052662e-02, -7.03913567e-04, -3.51318493e-02,
        -1.30132539e-02,  3.13129500e-02},
       { 2.52853613e-02,  3.99167277e-02, -2.08604988e-02,
        -7.14850705e-03,  5.87645546e-02},
       { 2.83042733e-02, -1.25286891e-03,  3.71887647e-02,
        -1.85934901e-02,  9.65193007e-03},
       {-1.47453910e-02,  5.01307249e-02,  2.54239738e-02,
         2.98641883e-02, -7.91196525e-03},
       { 4.06173952e-02,  4.38655652e-02,  1.15125962e-02,
         5.47091896e-03,  1.36281690e-02},
       { 4.38024849e-02,  4.83281948e-02, -3.40436548e-02,
        -1.44448821e-02, -7.04301074e-02},
       { 6.40806258e-02,  2.76553109e-02,  4.62167114e-02,
         1.69660933e-02,  4.72018234e-02},
       {-1.39479281e-03, -4.33689877e-02,  5.12758754e-02,
        -3.36155146e-02, -5.88367768e-02},
       {-1.27294855e-02, -5.20204939e-02, -5.53309023e-02,
         4.99591343e-02,  5.23190014e-02},
       {-3.44223604e-02,  2.85385232e-02,  4.33627069e-02,
         1.38882939e-02, -5.07095307e-02},
       {-1.09427990e-02, -5.16191535e-02,  4.46227938e-02,
        -3.95078287e-02,  2.34209783e-02},
       { 1.97446793e-02,  2.24918369e-02,  5.81038110e-02,
        -4.94749844e-02, -7.01166317e-02},
       {-7.50782993e-03, -4.61728536e-02,  5.11536039e-02,
        -9.33226722e-04, -1.18801137e-02},
       { 6.20019250e-02, -4.28103209e-02, -1.08406628e-02,
         3.80965509e-02,  2.92162839e-02},
       {-5.73946349e-02, -2.87040956e-02, -4.60495912e-02,
         1.11925509e-02, -2.92076804e-02},
       {-1.58748925e-02, -3.32972184e-02, -6.50613308e-02,
        -3.16735730e-02, -1.69957243e-02},
       {-2.90047973e-02, -3.68531980e-02, -5.08925766e-02,
        -3.07125896e-02,  4.76720445e-02},
       {-6.14787638e-02, -2.55348906e-02,  4.44295891e-02,
         3.69674899e-02,  1.42543027e-02},
       {-6.87064743e-03, -1.07136928e-02,  5.02886884e-02,
         6.08669482e-02,  4.87952754e-02},
       {-9.73379519e-03,  2.13752836e-02, -2.37344150e-02,
         2.03938950e-02, -1.35035515e-02},
       {-9.97866318e-03, -7.84433621e-04,  3.81707735e-02,
         2.25097984e-02,  3.11101917e-02},
       { 6.12120926e-02, -5.31895347e-02,  1.99150704e-02,
         1.37904854e-02, -6.75034076e-02},
       {-3.60741653e-02, -1.33132096e-02, -6.13626055e-02,
        -5.65862609e-03, -3.62663716e-02},
       { 5.64516932e-02, -2.79343780e-02,  1.32051650e-02,
         9.18558054e-03, -7.49503076e-03},
       {-4.79497612e-02, -2.32304614e-02,  6.46427795e-02,
        -4.93310317e-02, -3.88792604e-02},
       { 1.38245197e-02,  3.27200885e-03,  3.90627198e-02,
         4.28411998e-02, -5.93415610e-02},
       {-2.32247412e-02,  8.11547693e-03, -2.11107521e-03,
         4.87620523e-03,  5.92028163e-03},
       {-7.66405324e-03,  5.88740185e-02,  3.93076651e-02,
        -4.42980565e-02, -6.80274591e-02},
       { 2.01827772e-02,  1.63496062e-02,  1.16055058e-02,
        -4.42620814e-02, -1.62905292e-03},
       { 9.35673341e-03,  6.84371591e-02, -5.00132050e-03,
        -4.84597646e-02,  5.06059863e-02},
       { 8.77434108e-03, -3.10604274e-02, -5.13105094e-02,
        -7.19005838e-02,  5.34048453e-02},
       { 4.16712351e-02,  2.18425822e-02, -1.28329452e-03,
        -3.10222805e-02,  1.61046907e-02},
       { 3.17461528e-02,  2.79384479e-02, -6.68885410e-02,
         6.84718713e-02, -4.85878699e-02},
       {-5.44999726e-02,  2.74757836e-02, -5.44463210e-02,
         6.28372803e-02,  3.25481705e-02},
       {-3.77145074e-02,  4.30282913e-02, -4.49371152e-02,
         5.66117615e-02, -1.69226695e-02},
       { 1.14339935e-02, -5.74960671e-02,  2.25585699e-02,
         5.18561862e-02, -4.52468954e-02},
       {-1.00315139e-02,  2.01647170e-02,  3.11757981e-06,
        -4.00959067e-02, -1.35232825e-02},
       { 6.58756271e-02,  2.33399980e-02,  4.41682898e-02,
         3.90240625e-02, -7.01731965e-02},
       {-4.68579233e-02, -4.67556827e-02, -4.81650606e-03,
        -2.70757545e-02, -1.63813308e-02},
       {-5.80138564e-02, -5.12477122e-02,  4.07908447e-02,
         4.52583767e-02,  2.02766769e-02},
       {-2.35262164e-03, -4.24037501e-02, -5.89249171e-02,
         5.71436472e-02,  6.23944849e-02},
       {-5.87055720e-02, -6.65375516e-02, -2.08731852e-02,
         5.53430393e-02,  1.89524963e-02},
       { 4.28254418e-02, -6.29936233e-02,  1.92173605e-03,
         2.05677077e-02,  3.20187286e-02},
       { 4.27352870e-03,  2.55488437e-02, -6.19634241e-02,
        -3.06936093e-02, -2.22746544e-02},
       { 3.72130014e-02, -3.97986546e-02,  3.01449243e-02,
        -4.85282801e-02,  2.04317328e-02},
       {-4.72773015e-02,  4.06514145e-02, -3.27025838e-02,
         3.66164632e-02, -6.68677464e-02},
       { 5.38125485e-02,  3.88540775e-02, -5.67294881e-02,
        -4.64401394e-02,  1.88380405e-02},
       { 2.98320651e-02, -4.79982309e-02, -2.76769791e-03,
        -4.11970802e-02, -8.95833410e-03},
       { 4.87427935e-02,  9.16106347e-03, -3.10518369e-02,
        -3.96444742e-03,  5.88148013e-02},
       {-2.14346927e-02, -6.44284263e-02,  1.95143966e-03,
        -3.87842990e-02, -4.56706025e-02},
       {-2.93515977e-02,  3.17724459e-02, -2.01632585e-02,
        -1.60074197e-02, -4.84495647e-02},
       { 5.00396192e-02,  3.60959731e-02, -2.67133657e-02,
        -6.58284426e-02,  2.45444346e-02},
       {-3.77049632e-02,  2.20843684e-02,  1.34040629e-02,
         4.93942089e-02, -5.93957789e-02},
       { 5.81040345e-02, -6.33375645e-02, -9.75178089e-04,
         4.24411260e-02, -1.43244183e-02},
       {-2.42945161e-02,  4.78865132e-02,  4.53521982e-02,
        -1.91465709e-02,  3.13117765e-02},
       {-3.30454260e-02,  3.91074605e-02, -1.90083496e-02,
         3.56326327e-02,  4.22195392e-03},
       {-8.22422281e-03, -5.92784993e-02, -3.03267483e-02,
        -6.58889348e-03, -1.23732686e-02},
       { 7.40374811e-03,  2.37943660e-02,  6.42403066e-02,
        -2.06346996e-02,  9.24503896e-03},
       { 2.85344478e-02, -3.21021751e-02, -4.28033918e-02,
         1.41236531e-02, -6.35051504e-02},
       {-3.03432327e-02,  3.99318002e-02, -7.93670770e-03,
         1.33194076e-03,  5.39920591e-02},
       {-3.87288108e-02, -9.36980080e-03,  2.24675704e-02,
        -1.43443840e-02,  3.72333340e-02},
       { 6.95651099e-02, -2.65270453e-02, -4.72354852e-02,
        -7.24672750e-02, -2.45116465e-02},
       {-4.68722396e-02, -4.11101542e-02, -2.44112480e-02,
        -3.69555429e-02,  3.49582918e-02},
       { 7.08344653e-02, -4.09847386e-02, -1.75511129e-02,
        -3.67658660e-02, -3.47804800e-02},
       { 7.18094483e-02,  2.07144842e-02,  1.92875974e-02,
         6.24733567e-02,  4.07651104e-02},
       {-3.36815640e-02,  6.21016771e-02,  2.66478080e-02,
         5.73877171e-02,  5.17904237e-02},
       {-5.68772294e-02, -2.38438062e-02, -3.08182966e-02,
        -7.25027323e-02, -3.12796235e-02},
       { 4.28019427e-02,  1.85237527e-02,  5.83379008e-02,
         3.27820480e-02,  3.99263799e-02},
       {-3.37276980e-02,  1.43051287e-02,  2.53174547e-02,
         2.68509537e-02, -1.72548275e-02},
       {-3.41284797e-02,  6.07129857e-02, -4.42022905e-02,
        -7.26230964e-02,  4.78226095e-02},
       {-2.40964778e-02, -2.41386443e-02,  8.82699620e-03,
        -3.81281264e-02, -9.75147542e-03},
       {-5.55270575e-02,  1.32681876e-02, -2.10199542e-02,
         2.28106007e-02,  1.54535798e-02},
       { 4.56516482e-02, -4.56795543e-02,  1.13610355e-02,
         5.59315458e-02, -3.64041561e-03},
       {-4.70018759e-02,  4.83966805e-02,  5.55238128e-02,
         6.11346476e-02, -4.46566343e-02},
       { 5.94121739e-02,  5.42449243e-02, -5.57524487e-02,
         5.92810437e-02,  4.63746525e-02},
       { 1.98073145e-02, -2.80409865e-02, -3.33178863e-02,
         3.64030786e-02,  2.04746407e-02},
       { 4.79401536e-02, -1.32241799e-03, -4.41083126e-02,
        -6.27148375e-02, -7.09541291e-02},
       {-1.29383346e-02,  2.60507949e-02,  5.86132482e-02,
         5.41235022e-02, -4.51040640e-02},
       {-4.22945134e-02, -6.55190274e-03,  6.87225014e-02,
        -7.14465827e-02,  8.55142903e-03},
       {-4.11953926e-02,  5.42954542e-02,  1.33523652e-02,
        -2.88536064e-02, -1.11706313e-02},
       { 6.72920644e-02,  3.36416773e-02, -4.43645082e-02,
        -2.07538512e-02,  3.05667482e-02},
       { 6.10355241e-03, -2.16203853e-02,  6.99739158e-02,
         4.12146859e-02,  4.78832796e-02},
       { 9.87928268e-03, -5.21026477e-02, -3.67799662e-02,
         4.56191748e-02,  5.02003403e-03},
       { 9.20896605e-03,  6.45412207e-02,  1.30252009e-02,
        -6.83936924e-02, -4.34119888e-02},
       {-4.93635163e-02,  4.87039387e-02, -3.78165431e-02,
        -6.74615428e-02, -3.79081182e-02},
       { 6.04179613e-02, -1.96083207e-02, -6.20410824e-03,
         4.35932316e-02,  3.58385332e-02},
       {-1.45525290e-02,  4.82127219e-02, -2.54055075e-02,
         1.63991265e-02, -9.26763564e-03},
       { 4.78044599e-02, -4.44147252e-02, -5.10790274e-02,
         1.80755127e-02, -9.40289348e-03},
       { 1.61890313e-02,  1.50683494e-02,  4.64482559e-03,
         6.62596822e-02,  1.11550018e-02},
       {-4.77064736e-02,  6.80501983e-02,  4.29756232e-02,
         4.16255891e-02,  5.24023138e-02},
       { 6.98334798e-02, -3.06449626e-02, -5.53063303e-03,
        -3.89222652e-02, -4.22574915e-02},
       { 5.51471785e-02,  1.70494169e-02, -5.00857793e-02,
         6.53892681e-02,  9.35213454e-03},
       {-6.03231229e-02,  1.45247458e-02, -3.34599763e-02,
         5.77622056e-02, -5.70970625e-02},
       {-3.56383324e-02, -1.25554381e-02,  2.75555197e-02,
        -6.67558983e-02,  2.45233910e-04},
       {-4.29243483e-02,  4.95551713e-02,  1.44371511e-02,
        -2.16945969e-02, -5.34381233e-02},
       { 2.92227808e-02, -5.12574017e-02, -3.24240252e-02,
        -6.40640408e-02,  5.99375404e-02},
       {-3.51951867e-02, -3.75080109e-03, -4.13858294e-02,
        -3.16925459e-02, -4.23314646e-02},
       {-6.30493537e-02, -3.20023596e-02,  4.54219021e-02,
        -4.35240716e-02,  5.40933618e-03},
       { 6.23091571e-02, -1.61447488e-02, -4.49908786e-02,
         4.56860252e-02, -1.34927658e-02},
       {-5.10266237e-02, -1.59411561e-02,  6.67244196e-02,
        -4.26838361e-02, -1.86442789e-02},
       { 6.08942062e-02,  2.15497259e-02, -3.95004451e-02,
        -6.28110096e-02, -2.02077013e-02},
       { 2.60779168e-02, -6.57665431e-02, -1.86980534e-02,
        -1.49467289e-02,  3.36203873e-02},
       {-2.03730841e-03,  1.21964840e-03, -2.27422128e-03,
         1.53505951e-02, -3.59233469e-02},
       { 5.87321743e-02,  3.78309600e-02,  2.14274079e-02,
         5.60875423e-02, -1.12046013e-02},
       { 1.60902122e-03, -4.33560908e-02, -4.96767536e-02,
         5.74046113e-02,  6.49180487e-02},
       {-3.74424122e-02,  2.93939989e-02,  6.59868196e-02,
         1.53723601e-02,  1.34147676e-02},
       {-3.25247552e-03, -6.56312928e-02, -3.99372429e-02,
        -6.42756969e-02,  5.89471729e-03},
       { 2.63050962e-02, -3.17049539e-03, -1.97872650e-02,
         1.66289639e-02, -3.38052493e-03},
       {-4.20466252e-02,  4.22976874e-02, -4.85287979e-02,
        -5.69182299e-02,  1.31173339e-02},
       { 3.19485664e-02, -2.17704624e-02,  2.13561524e-02,
         3.69196348e-02, -1.56526379e-02},
       {-4.98929992e-02, -6.19846359e-02, -5.28192818e-02,
         3.59168574e-02,  4.22011353e-02},
       {-3.12850438e-02,  5.77044226e-02, -1.52877383e-02,
        -4.22070920e-02, -3.47034931e-02},
       {-3.63095962e-02,  6.46125004e-02,  6.51283264e-02,
        -6.96440265e-02, -5.72825633e-02},
       { 3.52184870e-03,  5.91928773e-02, -2.17627119e-02,
         8.03149119e-03, -1.44737530e-02},
       { 4.60105538e-02, -5.94948716e-02,  3.35035548e-02,
         3.15558426e-02,  2.46234834e-02},
       { 7.15188012e-02,  4.05604616e-02,  6.21561101e-03,
        -6.12687543e-02,  2.72641778e-02},
       {-4.84937020e-02, -2.20387504e-02, -3.08518354e-02,
        -5.49595989e-02,  4.13989574e-02},
       {-2.44018063e-02,  1.23788416e-02,  6.17104582e-02,
        -5.12972325e-02, -1.24911619e-02},
       {-4.62936498e-02,  5.71721457e-02, -2.08397619e-02,
         2.24675611e-02, -5.98463267e-02},
       {-4.76490147e-02, -1.59131584e-03, -5.76520786e-02,
        -2.52443738e-02, -5.84076568e-02},
       {-5.89004532e-02,  1.60646904e-03, -3.05922353e-03,
        -1.69639736e-02, -6.60850778e-02},
       { 3.94468419e-02, -6.32377714e-02,  3.64507474e-02,
        -1.10039776e-02,  5.31943515e-02},
       {-3.48310843e-02, -6.63765818e-02,  2.86556594e-02,
        -4.99169230e-02,  1.60960369e-02},
       { 1.86652448e-02, -4.43839431e-02,  5.89545146e-02,
         5.10561094e-02, -4.89458740e-02},
       {-4.36446680e-05, -2.45530382e-02,  5.92110567e-02,
        -5.84671609e-02, -4.22414355e-02},
       {-5.48337661e-02,  4.25123312e-02,  4.68967184e-02,
        -2.52442695e-02, -2.40040794e-02},
       {-5.28241545e-02,  2.74271481e-02,  1.14246476e-02,
         2.71149017e-02, -1.10728927e-02},
       { 3.54265347e-02,  5.32319508e-02,  3.58213708e-02,
         6.28465042e-02, -7.15521276e-02},
       { 1.00385770e-02, -2.33059358e-02,  4.99553084e-02,
         2.47064829e-02,  6.34726137e-02},
       {-1.41099067e-02,  4.19423431e-02,  5.05931973e-02,
         4.05007079e-02, -6.32463098e-02},
       {-6.53031794e-03,  6.08439483e-02,  4.30700332e-02,
        -1.20521348e-03,  8.55993014e-03},
       { 3.80031951e-02,  3.99559848e-02, -5.56588806e-02,
         1.71085279e-02, -1.55894374e-02},
       { 3.86263207e-02, -5.47012165e-02,  5.57970665e-02,
         5.22923954e-02,  1.05667152e-02},
       {-1.22121237e-02, -3.51906791e-02, -5.67166843e-02,
        -3.89601626e-02,  4.76266332e-02},
       { 3.97961494e-03, -6.69850931e-02, -6.31375164e-02,
         1.80441104e-02, -6.46673590e-02},
       { 6.33857176e-02,  1.85831152e-02, -2.15202682e-02,
        -4.71115336e-02, -1.42283831e-02},
       {-4.94118407e-03,  2.34854240e-02, -3.04717012e-02,
        -4.19945158e-02,  1.47219177e-03},
       { 6.17118590e-02,  1.64982788e-02,  1.51191466e-02,
         5.05041629e-02, -5.60588157e-03},
       {-3.15221511e-02,  6.07850924e-02,  4.36062440e-02,
         4.44228053e-02, -6.56323731e-02},
       { 5.89757860e-02, -4.18131165e-02, -4.26844470e-02,
         3.88202220e-02, -1.34850724e-03},
       { 2.05551814e-02,  3.33879851e-02, -5.63891232e-02,
        -4.42482606e-02,  2.32288204e-02},
       {-1.63395843e-03,  5.20377383e-02, -6.65568262e-02,
        -3.77893932e-02, -4.58236560e-02},
       {-6.17894977e-02, -4.94021475e-02, -4.02413458e-02,
         4.77999970e-02, -4.98216227e-02},
       {-1.90838259e-02,  4.63799899e-03, -1.75800975e-02,
         2.00483156e-03,  8.85898154e-03},
       {-5.65279555e-03, -6.25411272e-02,  1.42298751e-02,
         4.98559028e-02, -4.46920916e-02},
       {-2.74203182e-03, -2.79875137e-02, -4.19273861e-02,
         7.82351568e-03, -4.88594137e-02},
       {-4.84685302e-02, -3.21525224e-02,  2.72939391e-02,
         5.64251877e-02,  4.55893986e-02},
       { 5.32914102e-02,  2.32063420e-02, -4.77017462e-02,
        -5.22054359e-02,  5.17463982e-02},
       {-3.92180495e-02, -3.38525660e-02,  5.60723394e-02,
        -4.50609550e-02,  8.50666314e-04},
       { 6.51609444e-04, -3.68191786e-02, -3.32087204e-02,
        -5.87409437e-02, -5.77140115e-02},
       {-1.01278368e-02,  4.37390879e-02, -6.63005561e-02,
        -4.99381088e-02, -4.82323376e-04},
       { 1.46218063e-02,  2.93710232e-02,  6.42684922e-02,
        -4.96350303e-02,  4.95962985e-02},
       { 1.21009992e-02, -5.97013421e-02,  1.54129351e-02,
         5.57986237e-02, -3.48930396e-02},
       { 9.44858824e-04,  2.24098172e-02, -1.53388176e-02,
         2.26372201e-03, -5.00975847e-02},
       {-6.18597269e-02, -1.20759448e-02,  3.97254638e-02,
         4.43841890e-02, -2.37138346e-02},
       { 3.74320038e-02, -8.44032597e-03, -4.14888263e-02,
        -2.33998057e-02,  4.79349717e-02},
       {-1.66413002e-02, -2.58826558e-03, -6.55317456e-02,
        -1.62024461e-02,  3.84906828e-02},
       { 1.11311767e-03, -5.49143367e-02,  3.20996158e-02,
        -1.19664455e-02,  4.12141792e-02},
       {-4.92172055e-02,  6.03577271e-02,  1.44200623e-02,
        -2.09048670e-02, -4.97553833e-02},
       { 2.32854653e-02, -7.86507409e-03,  3.22158523e-02,
         3.74281593e-02,  2.15658434e-02},
       {-6.16975911e-02, -4.62644622e-02,  2.59089638e-02,
        -6.88916594e-02,  4.80846725e-02},
       { 5.75961769e-02,  3.60117406e-02, -5.35962470e-02,
        -1.89264957e-02, -5.74381910e-02},
       {-4.77166101e-02, -3.40879560e-02,  5.52455196e-03,
        -4.39961925e-02, -3.87539342e-02},
       {-5.34819774e-02,  3.13770846e-02,  6.81428313e-02,
         5.82554797e-03, -2.67073009e-02},
       { 1.38589181e-02, -3.18477005e-02, -5.98543435e-02,
        -4.84107994e-03,  6.59808666e-02},
       {-2.47283876e-02,  5.95201924e-02,  5.85538559e-02,
         4.58918419e-03, -2.29547471e-02},
       { 5.30020334e-03, -6.91341609e-02, -3.86828557e-02,
        -5.97755425e-02, -1.45148523e-02},
       { 8.13855603e-03,  6.25923425e-02,  5.25625944e-02,
         5.21538220e-02,  4.47646491e-02},
       {-5.86958565e-02, -6.48259446e-02, -4.86402437e-02,
        -3.11493464e-02, -4.19651940e-02},
       {-1.48027837e-02,  6.49966300e-02,  4.53567766e-02,
         4.09912392e-02,  6.64784759e-02},
       { 1.77268945e-02,  6.30130917e-02,  4.47659865e-02,
        -5.91985397e-02,  3.91123444e-03},
       {-1.39296912e-02, -5.59410863e-02, -2.54017171e-02,
         4.99773659e-02, -5.22925518e-02},
       {-5.80899492e-02, -5.19584715e-02,  7.05267489e-03,
        -4.18082774e-02, -2.93069389e-02},
{ 6.11279868e-02,  5.49249277e-02, -3.37696224e-02,
         1.69430915e-02,  3.39430906e-02},
       {-1.45715633e-02,  3.74724679e-02, -3.71194910e-04,
        -2.57826801e-02, -6.68479726e-02},
       {-4.27949317e-02, -4.85118218e-02, -4.85020429e-02,
         1.05424318e-02, -3.34801041e-02},
       {-3.34791169e-02, -1.77446268e-02, -5.60646430e-02,
         3.14141512e-02, -5.85291944e-02},
       { 4.84367227e-03,  2.91489139e-02, -2.12664381e-02,
        -3.02739460e-02, -2.17599347e-02},
       { 1.70463882e-02,  6.53850585e-02, -6.73338249e-02,
        -2.25755833e-02,  4.78817001e-02},
       { 3.62379290e-02,  5.38309738e-02,  2.29992159e-02,
        -6.76091015e-03,  6.54837955e-03},
       {-4.80239876e-02, -1.00786583e-02, -1.62228961e-02,
         1.28033599e-02, -4.42582779e-02},
       {-1.01320175e-02, -3.85109335e-02,  3.33394445e-02,
        -3.12650092e-02, -4.13468182e-02},
       { 6.08397182e-03,  4.82059419e-02,  2.83692591e-02,
        -2.14928761e-02,  4.63729948e-02},
       {-5.62450401e-02, -3.23705412e-02, -1.48071982e-02,
        -3.36823277e-02, -2.97683030e-02},
       { 5.76761812e-02, -2.20485982e-02, -8.35916679e-03,
         4.58959229e-02,  5.23953624e-02},
       { 7.27098957e-02,  2.37559155e-02,  6.18854575e-02,
         3.59519050e-02, -2.42715590e-02},
       {-5.44860885e-02, -4.69516404e-02, -2.29244426e-04,
        -1.38288978e-02,  3.78306657e-02},
       {-4.71642055e-02,  6.31541386e-02,  6.43496402e-03,
         6.21056836e-03, -3.29014659e-02},
       { 2.41400506e-02, -6.40913248e-02, -5.27913943e-02,
         3.01389843e-02,  5.95648475e-02},
       {-4.62058969e-02, -9.84023046e-03, -5.37640154e-02,
        -9.34142806e-03, -1.23005835e-02},
       { 4.43276651e-02,  2.60546226e-02,  6.56272532e-05,
        -4.33592014e-02,  6.07723184e-02},
       { 2.79757455e-02,  2.23136898e-02,  1.20421648e-02,
        -7.11717606e-02, -6.84532896e-02},
       { 4.89624813e-02,  5.26130125e-02, -2.10595746e-02,
        -1.81374513e-02,  2.43065506e-02},
       { 2.13893764e-02, -2.18170378e-02,  7.48215802e-03,
         6.13260195e-02,  6.76457658e-02},
       {-3.36623415e-02,  5.38771190e-02, -3.55397724e-03,
         8.11667088e-03,  1.03058969e-03},
       {-1.65329408e-02, -5.13136461e-02,  3.72065157e-02,
         6.56780787e-03, -5.51286340e-02},
       {-3.14600654e-02, -1.19187133e-02, -1.17769409e-02,
        -4.53496240e-02,  9.55908839e-03},
       { 3.96351442e-02,  3.05104069e-03,  1.57142673e-02,
        -5.35991676e-02, -5.23461625e-02},
       { 5.19609079e-03, -5.81822954e-02, -1.69198252e-02,
        -2.95189116e-02,  1.47695681e-02},
       {-7.24179018e-03,  5.41813262e-02, -4.50470531e-03,
        -4.65752333e-02,  6.75217584e-02},
       { 1.68781001e-02,  4.35449183e-02,  2.98950654e-02,
        -1.23069175e-02, -4.07072976e-02},
       { 6.33776411e-02, -4.68558781e-02,  3.43928970e-02,
         4.65854891e-02,  1.43300053e-02},
       {-4.17428315e-02, -4.00679559e-02,  1.07198767e-02,
        -4.42695469e-02, -6.93974923e-03},
       { 9.37119499e-03, -5.56230620e-02,  3.25156711e-02,
         1.83310863e-02,  1.54955657e-02},
       {-6.25893101e-02,  1.12912254e-02, -2.11947802e-02,
        -7.39928521e-03, -5.59316687e-02},
       {-1.70731032e-03, -5.98758906e-02, -3.85655835e-02,
         6.40807077e-02,  5.63039184e-02},
       {-2.48159450e-02, -1.19806752e-02, -6.19139671e-02,
         1.35365436e-02, -4.76037674e-02},
       { 5.98416552e-02, -2.87880320e-02,  6.36676745e-03,
         1.40665919e-02, -5.19679934e-02},
       {-6.71750903e-02,  2.08584946e-02,  4.97459956e-02,
         3.39399651e-02,  6.38793558e-02},
       {-4.65427265e-02, -5.44340089e-02,  2.71204542e-02,
        -5.94250392e-04,  4.58736159e-02},
       {-5.99938259e-02, -7.05461428e-02, -5.71149699e-02,
        -1.05916020e-02,  3.88076268e-02},
       { 2.62678545e-02,  7.62153370e-03,  5.75244129e-02,
        -9.71516687e-03, -4.42400649e-02},
       { 5.98980486e-02,  6.67211562e-02,  2.37640571e-02,
        -3.80933769e-02, -6.00109249e-03},
       {-2.09587868e-02,  2.79331002e-02, -5.62960729e-02,
        -5.49495108e-02, -5.75515162e-03},
       {-4.51810472e-02,  1.42420856e-02,  3.30396742e-02,
        -6.90570101e-02, -5.01850806e-02},
       { 7.26369768e-02, -3.61389183e-02,  3.37221175e-02,
         6.16614968e-02, -1.35150114e-02},
       {-5.72302416e-02, -6.87222034e-02,  3.64274681e-02,
        -5.29345982e-02,  1.38459010e-02},
       { 5.82388649e-03,  5.10544069e-02, -2.14415193e-02,
        -5.98919094e-02, -6.63246959e-02},
       { 9.67420731e-03,  6.44104779e-02, -6.73182355e-03,
        -4.77455929e-02, -1.74840465e-02},
       {-5.10341153e-02, -4.69633006e-02,  6.07945435e-02,
        -4.52294722e-02, -1.06450627e-02},
       { 3.25996131e-02, -7.41332816e-03,  3.14169265e-02,
         4.52519283e-02,  3.02943531e-02},
       {-5.57903163e-02, -6.76415414e-02, -2.25603636e-02,
        -4.83151898e-02, -3.97431217e-02},
       {-2.33094823e-02, -5.14481170e-03,  3.62368971e-02,
         1.00934105e-02,  6.41445145e-02},
       { 1.28609762e-02,  4.50363085e-02,  5.32321744e-02,
        -1.87116656e-02, -3.13966163e-02},
       {-1.29552754e-02,  4.51559052e-02,  1.25178667e-02,
         4.12876830e-02, -3.94687429e-02},
       { 1.16164293e-02, -5.08109927e-02, -1.73814762e-02,
         4.98301014e-02,  5.92499003e-02},
       {-5.14026619e-02,  2.24637017e-02,  1.99784525e-02,
         5.19092642e-02,  6.45848215e-02},
       { 5.48141859e-02, -2.60324613e-03,  6.78595752e-02,
        -3.57286558e-02, -2.97542568e-02},
       { 1.02111977e-02,  7.02322694e-03,  7.46115251e-03,
        -3.72682624e-02,  6.22782744e-02},
       { 3.64386737e-02, -4.39129099e-02, -1.96910743e-02,
         6.00395873e-02,  4.66507263e-02},
       { 3.08793224e-02, -3.37551683e-02,  4.47707698e-02,
         2.30649561e-02, -3.11153568e-03},
       {-6.35353476e-02,  1.94082260e-02, -4.08444256e-02,
        -5.47240041e-02,  2.27570459e-02},
       {-4.11783345e-02, -7.65184546e-03, -2.07533389e-02,
         5.97136170e-02, -4.04670238e-02},
       {-1.48554873e-02, -2.24784035e-02, -2.58242432e-02,
         6.60586879e-02,  3.96694988e-02},
       { 2.50435192e-02, -2.90479846e-02,  5.66032119e-02,
         1.56070776e-02, -1.26863178e-02},
       { 1.26917968e-02,  6.38326071e-03, -3.09707783e-02,
        -4.54375520e-02, -5.72645925e-02},
       { 6.36846945e-02,  6.38996065e-02,  2.79994439e-02,
        -2.99571957e-02, -1.85064450e-02},
       { 6.55297861e-02, -3.96735640e-03, -5.14862686e-02,
        -1.34909665e-02, -2.61118375e-02},
       {-4.45923731e-02, -2.00490188e-02, -5.97674102e-02,
         5.11679687e-02, -2.84154597e-03},
       { 5.81822135e-02,  2.34307162e-03,  2.80498657e-02,
         5.11761680e-02,  6.24517687e-02},
       {-6.67827353e-02,  2.95542683e-02,  5.80938123e-02,
         6.59463778e-02,  1.30660180e-02},
       {-3.27711366e-02,  6.18241541e-02,  3.15335169e-02,
        -6.42036274e-02,  5.80314808e-02},
       {-5.32216206e-02, -1.37204900e-02,  1.32566281e-02,
         5.10968640e-02, -4.69352901e-02},
       { 3.84782963e-02,  2.40407530e-02, -1.80581771e-02,
        -5.05988970e-02,  5.53937294e-02},
       {-5.83489984e-02,  2.99482926e-04,  6.50183633e-02,
         5.90810273e-03,  4.20646556e-02},
       { 5.52755147e-02, -4.42839053e-04,  6.35735169e-02,
         4.46844958e-02,  1.46057997e-02},
       { 2.85598058e-02, -5.08504286e-02,  2.16515306e-02,
         6.12458307e-03,  5.47859631e-02},
       {-5.37234657e-02, -2.95111891e-02, -8.85084830e-03,
         5.87034933e-02,  5.88947758e-02},
       {-3.00280191e-02,  5.34803942e-02,  3.21809463e-02,
        -5.32984771e-02, -3.90244126e-02},
       {-4.96050119e-02,  1.26189152e-02,  4.36650664e-02,
        -6.99745119e-02,  3.01711895e-02},
       {-6.27204552e-02,  5.43947741e-02,  7.22867623e-02,
        -2.59535108e-02,  1.45647023e-02},
       {-3.97134246e-03, -3.66171412e-02,  4.74490114e-02,
         4.38949950e-02, -1.44389570e-02},
       {-6.62484616e-02,  5.78418225e-02,  1.58403162e-02,
         3.95104140e-02, -5.42759374e-02},
       {-1.45350462e-02,  6.83029890e-02, -3.71576510e-02,
         5.42417131e-02,  4.63285334e-02},
       {-5.82038797e-02, -4.44540270e-02,  1.67952315e-03,
        -4.23660204e-02, -2.85136085e-02},
       { 6.73468187e-02, -4.35939059e-02, -7.44476588e-03,
         3.26237343e-02, -3.99448127e-02},
       { 2.97195408e-02,  1.04919141e-02,  4.68994305e-02,
         2.14630589e-02,  1.97973326e-02},
       { 6.06916621e-02, -6.71829656e-02,  3.92709449e-02,
         3.48185044e-04, -3.58485803e-02},
       {-1.63075572e-03,  2.77323350e-02,  6.80135712e-02,
        -3.95346666e-03, -5.58654107e-02},
       {-5.19113168e-02,  5.17612845e-02, -4.06188555e-02,
         1.09396223e-03, -3.76298018e-02},
       { 6.56049186e-03, -4.40775864e-02, -3.43229733e-02,
        -4.31258744e-03, -4.93967580e-03},
       { 3.72209363e-02,  6.13245890e-02, -2.91064978e-02,
         3.99686694e-02,  1.48470784e-02},
       { 5.36986142e-02,  7.85685610e-03,  7.19947740e-02,
        -2.32124366e-02,  5.97542375e-02},
       { 5.13287634e-02,  9.35753155e-03, -2.51404420e-02,
        -4.40745540e-02,  1.48438308e-02},
       { 5.63074164e-02, -1.94096919e-02, -4.79737297e-02,
         1.68228745e-02,  4.38630134e-02},
       {-2.61812117e-02,  1.42739555e-02, -6.17249198e-02,
         6.17609769e-02, -4.01877146e-03},
       {-1.85057148e-02,  3.90791744e-02, -4.69874293e-02,
        -4.10080738e-02, -2.30748598e-02},
       { 4.04612441e-03,  5.24394549e-02,  6.70210123e-02,
        -6.51295409e-02,  2.15092674e-02},
       {-3.62323015e-03, -4.14233394e-02,  4.92773540e-02,
        -1.72696263e-02, -3.66339125e-02},
       { 5.53744100e-02, -2.04072930e-02,  6.82311282e-02,
        -5.20478077e-02,  5.81503548e-02},
       {-5.42656295e-02, -4.98395897e-02, -2.13948581e-02,
         2.77973223e-03, -2.38594860e-02},
       { 4.56511080e-02, -4.31317510e-03, -2.48829238e-02,
         4.31030430e-02, -2.12947391e-02},
       {-5.36320060e-02, -6.95093535e-03, -5.58428280e-02,
         1.82685020e-04, -4.88034599e-02},
       { 2.91083865e-02,  2.32775044e-02, -5.13787530e-02,
        -6.76338887e-03, -5.93761615e-02},
       { 4.75147069e-02, -4.61938009e-02, -4.59076911e-02,
        -1.64526142e-02, -6.64747357e-02},
       { 4.32040580e-02, -1.86884834e-03,  3.38993445e-02,
        -4.47182767e-02, -4.68269810e-02},
       { 6.86093569e-02,  6.55879676e-02, -3.35993953e-02,
        -4.11299542e-02,  1.98668297e-02},
       {-1.83604956e-02, -5.61811291e-02, -2.54967809e-02,
         1.98293105e-02, -7.05185235e-02},
       { 5.67915551e-02, -5.21065183e-02, -3.50403562e-02,
        -1.98294837e-02, -3.94194871e-02},
       {-5.99766485e-02, -4.47591059e-02,  7.21233264e-02,
         3.59386504e-02,  5.48815690e-02},
       { 6.20281417e-03,  4.81840447e-02, -5.53217456e-02,
        -1.72045194e-02, -6.13924637e-02},
       {-2.57301126e-02,  2.90468894e-02,  3.61238141e-03,
        -5.32494076e-02, -1.68592576e-02},
       { 4.41363081e-03, -2.71061584e-02, -5.12575358e-02,
         1.10669304e-02, -4.39057648e-02},
       { 2.11337060e-02, -3.91249508e-02, -4.04264964e-02,
         2.83747111e-02,  2.79333559e-03},
       {-7.97336339e-04, -3.87300253e-02, -8.77702702e-03,
        -5.78477494e-02,  5.99332452e-02},
       { 5.40600941e-02,  9.29968525e-03,  2.78284680e-02,
         4.11833934e-02,  6.70906827e-02},
       {-6.62278831e-02,  2.13715956e-02, -1.98632330e-02,
        -5.50756492e-02,  5.99543974e-02},
       { 4.12196666e-02,  1.80535894e-02, -6.48885891e-02,
        -8.09885748e-03,  3.47106308e-02},
       { 2.34958958e-02,  5.54594547e-02,  2.25144830e-02,
         5.47264256e-02,  2.93312664e-03},
       {-6.63766861e-02,  1.91620123e-02,  4.14411463e-02,
         6.41064867e-02, -5.38897738e-02},
       { 2.04617344e-02, -5.37317917e-02, -5.71836494e-02,
         1.20741911e-02, -1.87680759e-02},
       {-1.70606133e-02,  5.72234765e-03, -1.97601877e-02,
        -2.14809980e-02,  2.93127056e-02},
       {-3.29385884e-02, -6.70638010e-02, -1.54649951e-02,
        -6.19239137e-02,  5.40637895e-02},
       { 4.69719358e-02,  3.65228439e-03,  6.95748404e-02,
        -9.58890934e-03, -6.52208626e-02},
       {-5.21808714e-02, -5.44174537e-02,  1.80595648e-02,
         4.71666977e-02,  4.81658056e-02},
       { 2.68766074e-03,  5.15314899e-02, -5.24139218e-02,
        -8.43465794e-03, -7.34682614e-03},
       {-5.45454444e-04, -6.06991798e-02,  8.75025708e-03,
        -4.05587442e-02, -6.86945021e-02},
       { 7.07262456e-02, -6.63935244e-02,  3.79960388e-02,
        -1.64238196e-02,  5.44616161e-03},
       {-1.64043307e-02, -8.14061239e-03, -3.64207737e-02,
         1.56734120e-02,  2.65441313e-02},
       {-3.16417776e-03, -3.92264761e-02,  2.10531708e-02,
         3.49714421e-02,  5.30147068e-02},
       { 6.78088218e-02,  3.28255855e-02, -5.47165163e-02,
         5.69607578e-02, -5.61510213e-02},
       {-6.68007880e-03,  2.98400540e-02, -6.54672831e-02,
         2.89693996e-02,  1.70065146e-02},
       {-5.49234711e-02,  1.37238884e-02, -4.95315976e-02,
         3.59736057e-03, -3.36085968e-02},
       {-1.75430242e-03, -5.92537746e-02,  5.82709489e-03,
        -2.38544634e-03,  2.94800289e-02},
       { 6.86158910e-02, -1.38218573e-03, -3.85150574e-02,
        -6.45302981e-02, -4.61576134e-02},
       { 3.33872885e-02, -1.74060289e-03,  1.05008315e-02,
        -3.53454761e-02,  2.95304041e-02},
       { 1.38836745e-02, -2.61177998e-02, -5.73242716e-02,
        -2.38507465e-02,  1.89208556e-02},
       { 5.07104136e-02, -1.85614899e-02, -5.15105240e-02,
         4.20191176e-02, -4.94467244e-02},
       { 5.09982929e-02,  3.02105565e-02, -5.09014502e-02,
        -6.41659498e-02,  6.38497844e-02},
       {-1.69047918e-02,  4.32084389e-02, -5.65469675e-02,
         4.81018759e-02,  3.35305673e-03},
       { 1.19622638e-02, -2.60279756e-02,  2.71760952e-02,
        -8.87522101e-03, -4.84232083e-02},
       {-6.06702082e-02,  8.80595203e-03, -4.16703932e-02,
        -2.82518901e-02, -4.53331396e-02},
       { 4.60720202e-03, -5.94830466e-03, -2.86043566e-02,
        -2.45008580e-02,  2.14677565e-02},
       {-2.08285749e-02,  2.53203530e-02,  3.38621810e-02,
        -4.47296016e-02, -6.19364493e-02},
       {-1.19825779e-02,  3.31863165e-02,  5.37481382e-02,
        -6.91724941e-02,  3.21050994e-02},
       { 2.21641902e-02,  1.72592215e-02, -1.13764303e-02,
         4.95848469e-02, -5.57616465e-02},
       { 1.63381547e-02,  4.35279869e-02,  4.65076827e-02,
         4.92668385e-03,  1.33412508e-02},
       {-2.41509881e-02,  3.60901430e-02, -5.68711683e-02,
        -6.11830875e-03, -4.62355763e-02},
       { 6.27911612e-02, -7.05354735e-02,  2.71310415e-02,
        -9.01557796e-04,  4.05574441e-02},
       { 4.06060182e-02,  5.05146571e-02,  6.84561655e-02,
         1.41614228e-02,  3.95257063e-02},
       { 2.74151806e-02,  1.59017295e-02, -6.22170828e-02,
        -6.66592419e-02, -6.73270226e-02},
       {-4.23112549e-02, -1.40101099e-02,  4.40118313e-02,
         2.27113310e-02,  1.30230524e-02},
       { 1.72261149e-02, -2.93873120e-02,  3.50687951e-02,
        -7.12903682e-03,  5.80808558e-02},
       { 2.78160125e-02, -2.96631027e-02, -4.47922312e-02,
         7.91008864e-03,  4.58831042e-02},
       {-4.76387516e-02, -3.56972143e-02, -3.55651751e-02,
         2.80312505e-02, -6.32436424e-02},
       {-1.99151486e-02, -1.09461406e-02,  2.07460430e-02,
         2.64136400e-03, -4.16270420e-02},
       {-1.18668163e-02, -3.40970270e-02, -4.46826667e-02,
        -2.99598482e-02,  1.60408951e-02},
       { 2.79003307e-02, -7.63111142e-03, -2.05072667e-03,
        -6.26168549e-02,  5.49312085e-02},
       {-5.20052202e-02,  3.68583873e-02,  3.95372361e-02,
         3.08565497e-02,  5.70851984e-03},
       { 5.48667014e-02, -2.23889071e-02,  1.67768393e-02,
         2.85386890e-02,  8.89452826e-03},
       {-4.97702770e-02, -3.70067864e-04,  4.19092700e-02,
         2.12475900e-02,  1.09451413e-02},
       { 4.38114554e-02, -6.63824156e-02,  1.75774544e-02,
         2.05384530e-02,  2.04216186e-02},
       { 5.43935634e-02, -5.64221404e-02,  4.08102348e-02,
        -5.08169271e-02, -5.89661151e-02},
       {-3.91333885e-02,  2.53082607e-02,  1.98994204e-02,
        -6.28722981e-02,  2.86676083e-02},
       { 3.65070365e-02,  3.26064713e-02,  4.56716083e-02,
         4.69828732e-02,  4.80342656e-03},
       {-3.05380649e-03, -4.21863943e-02, -2.68870648e-02,
        -2.92564463e-02, -6.70166612e-02},
       {-9.11031384e-03,  3.50329988e-02,  6.56720921e-02,
         5.99013492e-02, -2.78983414e-02},
       { 1.83317810e-02, -2.03015450e-02, -6.15212545e-02,
         2.17734985e-02,  6.53959513e-02},
       { 3.51007795e-03, -2.70165950e-02,  5.27354050e-03,
         5.27036153e-02,  8.92330706e-03},
       { 6.28582686e-02, -3.44274519e-03,  3.76279876e-02,
         3.54112200e-02,  2.08153147e-02},
       { 5.24417385e-02, -2.80019715e-02, -5.85330725e-02,
         3.58273014e-02,  1.59192570e-02},
       { 4.60702330e-02,  6.36136234e-02,  1.45951249e-02,
        -3.49050723e-02,  1.80865750e-02},
       { 3.07950433e-02,  6.75732642e-02, -3.24100479e-02,
         4.65313420e-02, -4.08857614e-02},
       { 4.36847433e-02,  4.97712679e-02, -3.33859026e-02,
         4.87594754e-02, -4.30848934e-02},
       { 4.71916534e-02, -6.01049550e-02,  1.96410455e-02,
        -3.78750451e-02,  3.79087403e-02},
       { 3.76145877e-02, -1.99877862e-02,  3.57841663e-02,
         5.10607995e-02, -3.65706384e-02},
       { 4.80854400e-02, -2.63202805e-02,  4.01952900e-02,
        -2.81941053e-02, -4.69795503e-02},
       {-4.24406081e-02, -1.99801773e-02,  1.44835515e-02,
         1.73383802e-02,  5.06941369e-03},
       { 3.09935957e-03, -7.03043193e-02, -2.96129845e-02,
        -4.56377007e-02,  4.82776910e-02},
       { 7.03602731e-02, -6.64961413e-02,  7.07679763e-02,
